{"learner":{"attributes":{"scikit_learn":"{\"_estimator_type\": \"classifier\"}"},"feature_names":[],"feature_types":[],"gradient_booster":{"model":{"gbtree_model_param":{"num_parallel_tree":"1","num_trees":"100"},"iteration_indptr":[0,1,2,3,4,5,6,7,8,9,10,11,12,13,14,15,16,17,18,19,20,21,22,23,24,25,26,27,28,29,30,31,32,33,34,35,36,37,38,39,40,41,42,43,44,45,46,47,48,49,50,51,52,53,54,55,56,57,58,59,60,61,62,63,64,65,66,67,68,69,70,71,72,73,74,75,76,77,78,79,80,81,82,83,84,85,86,87,88,89,90,91,92,93,94,95,96,97,98,99,100],"tree_info":[0,0,0,0,0,0,0,0,0,0,0,0,0,0,0,0,0,0,0,0,0,0,0,0,0,0,0,0,0,0,0,0,0,0,0,0,0,0,0,0,0,0,0,0,0,0,0,0,0,0,0,0,0,0,0,0,0,0,0,0,0,0,0,0,0,0,0,0,0,0,0,0,0,0,0,0,0,0,0,0,0,0,0,0,0,0,0,0,0,0,0,0,0,0,0,0,0,0,0,0],"trees":[{"base_weights":[1.6139296E-4,-1.190432E0,1.2555453E0,-1.7008828E0,-1.8427427E-1,-3.3877236E-1,1.4628931E0,-1.769672E0,1.7554191E-1,4.236226E-1,-1.6944405E0,-1.0625044E0,1.103777E0,1.3195643E-1,1.6004994E0,-1.8501738E0,-9.717325E-2,-6.079054E-1,1.1913618E0,-5.7720625E-1,-2.2473123E-2,1.7554191E-1,-1.57993E0,4.6005785E-2,4.1377375E-1,9.302138E-1,-4.042019E-1,1.6721673E0,-2.1353228E-1,-1.9118745E0,-2.2531833E-1,-3.257544E-1,3.383667E-1,-1.4295216E0,8.097479E-1,1.4370776E0,-1.8787979E-1,-5.371393E-1,-8.76155E-2,4.6627703E-1,-2.6303297E-1,-3.757268E-1,1.7385923E0,3.383667E-1,-4.066015E-1,4.6005785E-2,-5.8571935E-1,-3.8331294E-1,3.1324834E-1,-5.4474306E-1,-2.4976611E-2,-2.2123678E-1,4.3152797E-1,-8.76155E-2,4.8278502E-1,1.7962706E-1,-3.5485804E-1,5.3524137E-1,5.9186816E-2],"categories":[],"categories_nodes":[],"categories_segments":[],"categories_sizes":[],"default_left":[0,0,0,0,0,0,0,0,0,0,0,0,0,0,0,0,0,0,0,0,0,0,0,0,0,0,0,0,0,0,0,0,0,0,0,0,0,0,0,0,0,0,0,0,0,0,0,0,0,0,0,0,0,0,0,0,0,0,0],"id":0,"left_children":[1,3,5,7,9,11,13,15,-1,17,19,21,23,25,27,29,31,33,35,-1,-1,-1,37,-1,-1,39,-1,41,43,45,47,-1,-1,49,51,53,-1,-1,-1,-1,-1,55,57,-1,-1,-1,-1,-1,-1,-1,-1,-1,-1,-1,-1,-1,-1,-1,-1],"loss_changes":[3.3723706E2,5.9162277E1,3.6801758E1,1.3097687E1,3.7528557E1,1.5216407E1,1.7622559E1,9.879517E0,0E0,2.399905E1,4.2091637E0,8.995437E0,1.0934882E0,1.331475E1,1.1818619E1,6.7099915E0,6.658619E0,1.653537E1,8.576036E0,0E0,0E0,0E0,1.5038242E0,0E0,0E0,9.510784E0,0E0,1.2205429E1,8.018844E0,6.0310974E0,6.329844E0,0E0,0E0,4.383606E0,6.393614E0,5.068613E0,0E0,0E0,0E0,0E0,0E0,3.4535024E0,5.434738E0,0E0,0E0,0E0,0E0,0E0,0E0,0E0,0E0,0E0,0E0,0E0,0E0,0E0,0E0,0E0,0E0],"parents":[2147483647,0,0,1,1,2,2,3,3,4,4,5,5,6,6,7,7,9,9,10,10,11,11,12,12,13,13,14,14,15,15,16,16,17,17,18,18,22,22,25,25,27,27,28,28,29,29,30,30,33,33,34,34,35,35,41,41,42,42],"right_children":[2,4,6,8,10,12,14,16,-1,18,20,22,24,26,28,30,32,34,36,-1,-1,-1,38,-1,-1,40,-1,42,44,46,48,-1,-1,50,52,54,-1,-1,-1,-1,-1,56,58,-1,-1,-1,-1,-1,-1,-1,-1,-1,-1,-1,-1,-1,-1,-1,-1],"split_conditions":[7.4691546E-1,5.5168E-1,2.8248006E-1,1.850536E0,1.388087E0,7.88602E-1,2.7452937E-1,1.8997803E0,1.7554191E-1,5.9832263E-1,1.4552712E0,3.826832E-1,4.9360073E-1,8.913399E-1,1.5248153E0,1.7775549E0,1.5690491E0,5.6982523E-1,1.9150102E0,-5.7720625E-1,-2.2473123E-2,1.7554191E-1,6.456387E-1,4.6005785E-2,4.1377375E-1,1.5805496E0,-4.042019E-1,1.03749044E-1,6.09257E-1,3.8705632E-2,4.27227E-1,-3.257544E-1,3.383667E-1,1.0545564E0,4.2503107E-1,3.1021217E-1,-1.8787979E-1,-5.371393E-1,-8.76155E-2,4.6627703E-1,-2.6303297E-1,5.5513453E-1,2.586034E0,3.383667E-1,-4.066015E-1,4.6005785E-2,-5.8571935E-1,-3.8331294E-1,3.1324834E-1,-5.4474306E-1,-2.4976611E-2,-2.2123678E-1,4.3152797E-1,-8.76155E-2,4.8278502E-1,1.7962706E-1,-3.5485804E-1,5.3524137E-1,5.9186816E-2],"split_indices":[306,155,327,70,50,19,225,144,0,327,88,62,2,396,260,437,8,295,64,0,0,0,11,0,0,216,0,122,317,317,88,0,0,41,112,95,0,0,0,0,0,2,108,0,0,0,0,0,0,0,0,0,0,0,0,0,0,0,0],"split_type":[0,0,0,0,0,0,0,0,0,0,0,0,0,0,0,0,0,0,0,0,0,0,0,0,0,0,0,0,0,0,0,0,0,0,0,0,0,0,0,0,0,0,0,0,0,0,0,0,0,0,0,0,0,0,0,0,0,0,0],"sum_hessian":[2.236292E2,1.1480296E2,1.0882624E2,7.570521E1,3.9097755E1,1.2451514E1,9.6374725E1,7.371297E1,1.9922423E0,2.8389454E1,1.07083025E1,8.46703E0,3.9844847E0,9.214121E0,8.71606E1,7.022654E1,3.486424E0,1.2202484E1,1.618697E1,9.214121E0,1.4941818E0,1.9922423E0,6.4747877E0,1.2451515E0,2.7393332E0,6.225757E0,2.9883635E0,8.392321E1,3.2373939E0,6.7487206E1,2.7393332E0,1.9922423E0,1.4941818E0,7.719939E0,4.4825454E0,1.4443757E1,1.743212E0,5.229636E0,1.2451515E0,4.7315755E0,1.4941818E0,2.490303E0,8.143291E1,1.4941818E0,1.743212E0,1.2451515E0,6.624206E1,1.4941818E0,1.2451515E0,5.727697E0,1.9922423E0,1.2451515E0,3.2373939E0,1.2451515E0,1.3198606E1,1.2451515E0,1.2451515E0,7.8942604E1,2.490303E0],"tree_param":{"num_deleted":"0","num_feature":"512","num_nodes":"59","size_leaf_vector":"1"}},{"base_weights":[2.639724E-3,-8.85683E-1,9.7335446E-1,-1.3281113E0,-2.585856E-1,2.8122126E-3,1.1941504E0,-1.4118848E0,1.4508328E-1,4.1181272E-1,-1.0054189E0,-9.4014627E-1,9.3722016E-1,-2.8025523E-1,1.2566954E0,-1.4762497E0,7.1627006E-2,3.2315913E-1,-2.539688E-1,1.1613617E0,-3.6331138E-1,3.040423E-1,-1.2413683E0,-1.3458055E0,1.878397E-1,3.8976794E-1,-1.8560827E-1,1.3083391E0,-3.0028465E-1,2.9177533E-4,-1.5193015E0,-1.3592498E-1,4.484763E-1,-1.1263881E0,8.592773E-1,-1.4641451E0,1.2579703E-1,3.0614147E-2,-4.768422E-1,1.3409683E0,-1.2993582E-1,1.5154076E-1,-2.8631857E-1,-6.499662E-2,-4.734049E-1,-3.0221635E-1,2.714098E-1,1.3762024E-2,-4.379312E-1,3.726963E-1,-9.250644E-2,-4.7496974E-1,3.9223794E-2,-3.1313258E-1,3.16911E-1,-6.724742E-2,4.1188622E-1],"categories":[],"categories_nodes":[],"categories_segments":[],"categories_sizes":[],"default_left":[0,0,0,0,0,0,0,0,0,0,0,0,0,0,0,0,0,0,0,0,0,0,0,0,0,0,0,0,0,0,0,0,0,0,0,0,0,0,0,0,0,0,0,0,0,0,0,0,0,0,0,0,0,0,0,0,0],"id":1,"left_children":[1,3,5,7,9,11,13,15,17,19,21,23,25,-1,27,29,-1,-1,-1,31,33,-1,35,37,-1,-1,-1,39,41,-1,43,45,-1,47,49,51,53,-1,-1,55,-1,-1,-1,-1,-1,-1,-1,-1,-1,-1,-1,-1,-1,-1,-1,-1,-1],"loss_changes":[1.8247363E2,3.0313232E1,2.1664726E1,8.170731E0,2.3921013E1,1.8276325E1,1.21390915E1,6.850952E0,4.9602194E0,1.52086525E1,1.1975994E1,7.403204E0,6.671177E0,0E0,6.861511E0,3.7543182E0,0E0,0E0,0E0,5.9052258E0,1.3351231E1,0E0,6.4567986E0,3.1676235E0,0E0,0E0,0E0,5.0158386E0,2.271242E0,0E0,4.0436707E0,4.186789E0,0E0,3.4300585E0,2.9182096E0,3.5855484E0,5.245552E0,0E0,0E0,4.1555176E0,0E0,0E0,0E0,0E0,0E0,0E0,0E0,0E0,0E0,0E0,0E0,0E0,0E0,0E0,0E0,0E0,0E0],"parents":[2147483647,0,0,1,1,2,2,3,3,4,4,5,5,6,6,7,7,8,8,9,9,10,10,11,11,12,12,14,14,15,15,19,19,20,20,22,22,23,23,27,27,28,28,30,30,31,31,33,33,34,34,35,35,36,36,39,39],"right_children":[2,4,6,8,10,12,14,16,18,20,22,24,26,-1,28,30,-1,-1,-1,32,34,-1,36,38,-1,-1,-1,40,42,-1,44,46,-1,48,50,52,54,-1,-1,56,-1,-1,-1,-1,-1,-1,-1,-1,-1,-1,-1,-1,-1,-1,-1,-1,-1],"split_conditions":[7.4691546E-1,4.5613748E-1,5.1227295E-1,1.606049E0,8.148672E-1,8.740347E-1,5.582837E-2,3.1010337E0,2.1320361E-1,6.609593E-1,3.2281393E-1,1.4383754E0,1.1791042E0,-2.8025523E-1,1.7535329E0,1.5067364E-2,7.1627006E-2,3.2315913E-1,-2.539688E-1,2.3344776E-1,8.524572E-1,3.040423E-1,8.9971143E-1,2.244494E-1,1.878397E-1,3.8976794E-1,-1.8560827E-1,2.5455139E0,8.4231716E-1,2.9177533E-4,1.09343E-1,1.2081609E0,4.484763E-1,6.0899514E-1,1.5351887E0,2.0023313E0,5.484199E-1,3.0614147E-2,-4.768422E-1,8.566226E-2,-1.2993582E-1,1.5154076E-1,-2.8631857E-1,-6.499662E-2,-4.734049E-1,-3.0221635E-1,2.714098E-1,1.3762024E-2,-4.379312E-1,3.726963E-1,-9.250644E-2,-4.7496974E-1,3.9223794E-2,-3.1313258E-1,3.16911E-1,-6.724742E-2,4.1188622E-1],"split_indices":[306,155,153,70,324,120,173,141,174,423,358,112,423,0,260,501,0,0,0,235,327,0,295,340,0,0,0,411,30,0,235,3,0,414,45,343,166,0,0,70,0,0,0,0,0,0,0,0,0,0,0,0,0,0,0,0,0],"split_type":[0,0,0,0,0,0,0,0,0,0,0,0,0,0,0,0,0,0,0,0,0,0,0,0,0,0,0,0,0,0,0,0,0,0,0,0,0,0,0,0,0,0,0,0,0,0,0,0,0,0,0,0,0,0,0,0,0],"sum_hessian":[2.09611E2,1.09496185E2,1.0011481E2,6.3545708E1,4.595048E1,1.8742418E1,8.137239E1,6.0165974E1,3.379733E0,2.4450745E1,2.1499735E1,9.325471E0,9.416947E0,1.9251596E0,7.9447235E1,5.8009605E1,2.156369E0,1.6976898E0,1.6820432E0,1.2177118E1,1.2273627E1,1.9049339E0,1.95948E1,7.518877E0,1.8065941E0,7.7733417E0,1.6436058E0,7.70512E1,2.3960273E0,1.670424E0,5.633918E1,2.6117885E0,9.56533E0,7.605409E0,4.6682177E0,1.6788256E1,2.8065462E0,1.16684E0,6.3520374E0,7.585982E1,1.1913885E0,1.1758854E0,1.2201418E0,2.6321528E0,5.3707027E1,1.4388084E0,1.17298E0,1.8749586E0,5.7304506E0,3.4669218E0,1.201296E0,1.5628609E1,1.1596467E0,1.1896766E0,1.6168696E0,1.3989376E0,7.446088E1],"tree_param":{"num_deleted":"0","num_feature":"512","num_nodes":"57","size_leaf_vector":"1"}},{"base_weights":[1.0838262E-3,-8.364397E-1,7.0015913E-1,-1.0524588E0,-2.8097441E-2,-2.5936708E-1,9.262164E-1,1.4113036E-1,-1.1450026E0,7.503522E-1,-6.4797866E-1,8.272427E-1,-7.1118504E-1,-4.050512E-1,1.0313166E0,7.7861315E-1,-2.6536575E-1,-1.1947278E0,1.2202099E-1,-1.6600907E-1,3.5888284E-1,-1.0733573E0,6.1435294E-1,3.532136E-1,-1.3696395E-1,-1.1086136E0,4.4282922E-1,5.2663755E-1,-3.9822647E-1,1.1441278E0,9.1708854E-2,-4.506726E-2,3.408191E-1,-1.2630748E0,-1.8541192E-1,6.0963064E-2,-3.825002E-1,2.8584114E-1,-2.1002736E-2,-1.3114086E0,1.3694313E-1,3.1090155E-1,-2.0537958E-1,2.816468E-1,-9.876339E-2,-8.792643E-2,1.1893849E0,8.844968E-1,-7.446292E-1,-6.38315E-2,-3.9671585E-1,-3.000097E-1,2.6181608E-1,-4.3001348E-1,-3.3620004E-2,3.6757666E-1,-1.568381E-1,1.5768833E-2,3.2113302E-1,-3.588008E-1,4.242611E-2],"categories":[],"categories_nodes":[],"categories_segments":[],"categories_sizes":[],"default_left":[0,0,0,0,0,0,0,0,0,0,0,0,0,0,0,0,0,0,0,0,0,0,0,0,0,0,0,0,0,0,0,0,0,0,0,0,0,0,0,0,0,0,0,0,0,0,0,0,0,0,0,0,0,0,0,0,0,0,0,0,0],"id":2,"left_children":[1,3,5,7,9,11,13,15,17,19,21,23,25,27,29,31,-1,33,-1,-1,-1,35,37,-1,-1,39,41,43,-1,45,47,-1,-1,49,51,-1,-1,-1,-1,53,-1,-1,-1,-1,-1,-1,55,57,59,-1,-1,-1,-1,-1,-1,-1,-1,-1,-1,-1,-1],"loss_changes":[1.0925463E2,1.4794682E1,2.230133E1,7.5585327E0,9.620988E0,1.0492707E1,1.19655E1,4.421426E0,5.2896957E0,5.8100405E0,6.606417E0,3.408545E0,7.27272E0,6.505807E0,8.033218E0,1.5161386E0,0E0,3.944664E0,0E0,0E0,0E0,2.4851103E0,8.60572E-1,0E0,0E0,4.180193E0,3.7222478E0,1.7474791E0,0E0,4.801483E0,6.836132E0,0E0,0E0,3.2422485E0,5.1946588E0,0E0,0E0,0E0,0E0,1.3384933E0,0E0,0E0,0E0,0E0,0E0,0E0,4.7288895E0,7.5435114E-1,2.1995819E0,0E0,0E0,0E0,0E0,0E0,0E0,0E0,0E0,0E0,0E0,0E0,0E0],"parents":[2147483647,0,0,1,1,2,2,3,3,4,4,5,5,6,6,7,7,8,8,9,9,10,10,11,11,12,12,13,13,14,14,15,15,17,17,21,21,22,22,25,25,26,26,27,27,29,29,30,30,33,33,34,34,39,39,46,46,47,47,48,48],"right_children":[2,4,6,8,10,12,14,16,18,20,22,24,26,28,30,32,-1,34,-1,-1,-1,36,38,-1,-1,40,42,44,-1,46,48,-1,-1,50,52,-1,-1,-1,-1,54,-1,-1,-1,-1,-1,-1,56,58,60,-1,-1,-1,-1,-1,-1,-1,-1,-1,-1,-1,-1],"split_conditions":[5.828339E-1,1.0722451E0,3.3314866E-1,2.1459584E-1,6.3322395E-1,7.927579E-1,1.8120956E-1,8.554539E-1,1.8327656E0,3.7250224E-1,1.0216421E0,1.1016681E0,8.858239E-1,6.92249E-1,1.2375855E0,6.102531E-1,-2.6536575E-1,2.4144242E0,1.2202099E-1,-1.6600907E-1,3.5888284E-1,1.5352929E-1,8.905353E-1,3.532136E-1,-1.3696395E-1,1.7237047E0,8.877214E-1,1.4554536E0,-3.9822647E-1,5.929675E-2,6.09257E-1,-4.506726E-2,3.408191E-1,1.2898196E-1,1.1533607E0,6.0963064E-2,-3.825002E-1,2.8584114E-1,-2.1002736E-2,1.8631797E0,1.3694313E-1,3.1090155E-1,-2.0537958E-1,2.816468E-1,-9.876339E-2,-8.792643E-2,2.4978042E0,1.7113751E-1,5.5476445E-1,-6.38315E-2,-3.9671585E-1,-3.000097E-1,2.6181608E-1,-4.3001348E-1,-3.3620004E-2,3.6757666E-1,-1.568381E-1,1.5768833E-2,3.2113302E-1,-3.588008E-1,4.242611E-2],"split_indices":[306,437,327,83,273,7,155,324,473,155,210,360,393,193,260,399,0,491,0,0,0,253,5,0,0,173,499,22,0,469,317,0,0,174,260,0,0,0,0,170,0,0,0,0,0,0,221,68,356,0,0,0,0,0,0,0,0,0,0,0,0],"split_type":[0,0,0,0,0,0,0,0,0,0,0,0,0,0,0,0,0,0,0,0,0,0,0,0,0,0,0,0,0,0,0,0,0,0,0,0,0,0,0,0,0,0,0,0,0,0,0,0,0,0,0,0,0,0,0,0,0,0,0,0,0],"sum_hessian":[1.8460286E2,8.389564E1,1.0070722E2,6.596527E1,1.7930363E1,1.9173925E1,8.1533295E1,4.70876E0,6.1256516E1,7.85524E0,1.0075123E1,5.3871236E0,1.3786803E1,5.757031E0,7.577627E1,3.0524704E0,1.6562895E0,5.9577435E1,1.6790785E0,1.9406278E0,5.914612E0,7.647711E0,2.4274125E0,4.2978354E0,1.0892881E0,1.0284341E1,3.5024617E0,3.0774894E0,2.6795413E0,6.7459305E1,8.316966E0,1.0093645E0,2.043106E0,5.556348E1,4.0139565E0,1.0421664E0,6.605544E0,1.3617225E0,1.0656899E0,9.248115E0,1.0362265E0,2.3474782E0,1.1549835E0,2.0116909E0,1.0657985E0,1.89223E0,6.556707E1,4.240087E0,4.076879E0,3.2151976E0,5.234828E1,2.2989671E0,1.7149894E0,8.217301E0,1.0308133E0,6.450017E1,1.0669065E0,1.0088995E0,3.2311878E0,2.4691992E0,1.6076796E0],"tree_param":{"num_deleted":"0","num_feature":"512","num_nodes":"61","size_leaf_vector":"1"}},{"base_weights":[3.848234E-4,-6.072528E-1,6.936348E-1,-9.626712E-1,-1.3043378E-1,-5.5121373E-2,8.803018E-1,-1.0514565E0,2.489644E-1,-7.4189603E-1,3.9051864E-1,4.5007765E-1,-9.679482E-1,-2.1641384E-1,9.3953687E-1,-1.114948E0,1.00445636E-1,-2.3193808E-1,2.7966774E-1,-1.1154394E0,2.3042235E-1,7.1325034E-1,-6.102641E-1,-4.187671E-1,1.0046514E0,-3.656093E-1,4.297596E-2,-3.229241E-1,1.0039093E0,7.879695E-2,-1.1712568E0,-3.7547857E-1,4.6794616E-2,8.17845E-1,-2.1202897E-1,-1.074545E-1,1.0333743E0,1.4748833E-1,-3.2488447E-1,1.2916903E-1,-2.9582706E-1,3.2664716E-1,7.8970134E-2,2.0427826E-1,-3.198586E-1,2.4576148E-1,1.1115478E0,-3.6353222E-1,4.2180255E-2,6.745965E-2,2.8360352E-1,2.3403305E-1,-2.5073674E-1,-5.6674752E-2,3.5750392E-1,-3.737709E-1,1.9331856E-1,3.5006166E-1,3.5908584E-2],"categories":[],"categories_nodes":[],"categories_segments":[],"categories_sizes":[],"default_left":[0,0,0,0,0,0,0,0,0,0,0,0,0,0,0,0,0,0,0,0,0,0,0,0,0,0,0,0,0,0,0,0,0,0,0,0,0,0,0,0,0,0,0,0,0,0,0,0,0,0,0,0,0,0,0,0,0,0,0],"id":3,"left_children":[1,3,5,7,9,11,13,15,17,19,21,23,25,-1,27,29,-1,-1,-1,31,33,35,37,39,41,-1,-1,43,45,-1,47,-1,-1,49,-1,51,53,-1,-1,-1,-1,-1,-1,-1,-1,55,57,-1,-1,-1,-1,-1,-1,-1,-1,-1,-1,-1,-1],"loss_changes":[6.797888E1,1.4448641E1,1.0583916E1,5.545334E0,1.2357271E1,7.8063397E0,6.407757E0,4.4179535E0,3.6271708E0,6.712124E0,7.2537594E0,5.707121E0,1.8496222E0,0E0,5.0925827E0,3.734089E0,0E0,0E0,0E0,2.4475937E0,3.7499216E0,4.4261312E0,3.494297E0,2.8243086E0,1.4967203E-1,0E0,0E0,3.4145448E0,4.302616E0,0E0,2.435749E0,0E0,0E0,9.024167E-2,0E0,4.2168574E0,2.5295868E0,0E0,0E0,0E0,0E0,0E0,0E0,0E0,0E0,5.711485E0,2.5390892E0,0E0,0E0,0E0,0E0,0E0,0E0,0E0,0E0,0E0,0E0,0E0,0E0],"parents":[2147483647,0,0,1,1,2,2,3,3,4,4,5,5,6,6,7,7,8,8,9,9,10,10,11,11,12,12,14,14,15,15,19,19,20,20,21,21,22,22,23,23,24,24,27,27,28,28,30,30,33,33,35,35,36,36,45,45,46,46],"right_children":[2,4,6,8,10,12,14,16,18,20,22,24,26,-1,28,30,-1,-1,-1,32,34,36,38,40,42,-1,-1,44,46,-1,48,-1,-1,50,-1,52,54,-1,-1,-1,-1,-1,-1,-1,-1,56,58,-1,-1,-1,-1,-1,-1,-1,-1,-1,-1,-1,-1],"split_conditions":[7.559809E-1,4.5613748E-1,5.1227295E-1,2.7235267E0,4.4575274E-1,1.1791042E0,5.582837E-2,1.850536E0,8.152534E-1,1.0156868E0,1.5154092E0,8.325429E-1,1.5342691E0,-2.1641384E-1,8.6826354E-2,7.4955694E-2,1.00445636E-1,-2.3193808E-1,2.7966774E-1,9.628861E-1,7.7770436E-1,5.298245E-1,5.1559454E-1,5.417786E-1,1.8103302E0,-3.656093E-1,4.297596E-2,6.5293473E-1,2.4059796E-1,7.879695E-2,2.5033078E0,-3.7547857E-1,4.6794616E-2,6.8193924E-1,-2.1202897E-1,1.1190269E0,2.2271518E-1,1.4748833E-1,-3.2488447E-1,1.2916903E-1,-2.9582706E-1,3.2664716E-1,7.8970134E-2,2.0427826E-1,-3.198586E-1,1.643333E-1,2.1443758E0,-3.6353222E-1,4.2180255E-2,6.745965E-2,2.8360352E-1,2.3403305E-1,-2.5073674E-1,-5.6674752E-2,3.5750392E-1,-3.737709E-1,1.9331856E-1,3.5006166E-1,3.5908584E-2],"split_indices":[306,155,153,141,136,423,173,70,492,338,304,120,205,0,93,440,0,0,0,0,229,433,293,76,20,0,0,7,227,0,99,0,0,128,0,280,206,0,0,0,0,0,0,0,0,117,183,0,0,0,0,0,0,0,0,0,0,0,0],"split_type":[0,0,0,0,0,0,0,0,0,0,0,0,0,0,0,0,0,0,0,0,0,0,0,0,0,0,0,0,0,0,0,0,0,0,0,0,0,0,0,0,0,0,0,0,0,0,0,0,0,0,0,0,0,0,0,0,0,0,0],"sum_hessian":[1.5937628E2,8.499858E1,7.43777E1,4.811498E1,3.6883602E1,1.4982957E1,5.939474E1,4.4953144E1,3.1618378E0,1.6772705E1,2.0110897E1,9.971323E0,5.0116334E0,1.7195976E0,5.7675144E1,4.31716E1,1.7815423E0,1.2141161E0,1.9477217E0,1.2011106E1,4.761599E0,1.5424214E1,4.6866817E0,3.9803057E0,5.9910173E0,4.010011E0,1.0016223E0,2.6032977E0,5.5071846E1,1.5514128E0,4.1620186E1,1.0863351E1,1.1477548E0,3.005259E0,1.7563403E0,4.514552E0,1.0909662E1,1.3949003E0,3.2917814E0,1.6905183E0,2.2897873E0,4.9594107E0,1.0316068E0,1.1431938E0,1.460104E0,7.2549667E0,4.781688E1,4.0447254E1,1.1729349E0,1.0208979E0,1.9843612E0,2.0028038E0,2.511748E0,1.2287794E0,9.680883E0,1.0817367E0,6.1732297E0,4.512349E1,2.6933892E0],"tree_param":{"num_deleted":"0","num_feature":"512","num_nodes":"59","size_leaf_vector":"1"}},{"base_weights":[-2.2971875E-3,-7.3167783E-1,4.2640802E-1,-9.417832E-1,-1.4753431E-1,-8.706882E-2,7.511926E-1,1.552133E-1,-1.05607E0,-6.37985E-1,5.799997E-1,-4.919405E-1,6.093419E-1,-1.3374493E-1,9.112658E-1,-1.8282169E-1,2.6043567E-1,-3.4381745E-3,-1.1122528E0,2.147003E-1,-9.4558346E-1,-1.0923342E-1,3.1837976E-1,-7.5958925E-1,4.8864716E-1,8.6327606E-1,-1.6110517E-1,-7.1241075E-1,7.572462E-1,9.89176E-1,-3.4649524E-1,-1.1804097E0,-2.525299E-1,-3.1075835E-1,-5.1783103E-2,-9.7982043E-1,3.784004E-1,-1.6890869E-1,2.755165E-1,1.0464618E0,-5.3542923E-2,1.9341326E-1,-3.3926702E-1,5.8311578E-2,2.6396054E-1,-1.292276E-1,1.0472014E0,1.283305E-1,-2.887879E-1,-1.4108895E-1,-3.6329636E-1,-2.1970426E-1,1.3579503E-1,-4.4815756E-2,-3.6462212E-1,-1.0439656E-1,2.4077223E-1,4.580093E-2,3.4288782E-1,3.3018646E-1,-2.7401602E-2],"categories":[],"categories_nodes":[],"categories_segments":[],"categories_sizes":[],"default_left":[0,0,0,0,0,0,0,0,0,0,0,0,0,0,0,0,0,0,0,0,0,0,0,0,0,0,0,0,0,0,0,0,0,0,0,0,0,0,0,0,0,0,0,0,0,0,0,0,0,0,0,0,0,0,0,0,0,0,0,0,0],"id":4,"left_children":[1,3,5,7,9,11,13,15,17,19,21,23,25,27,29,-1,-1,-1,31,-1,33,-1,-1,35,37,39,-1,41,43,45,47,49,51,-1,-1,53,55,-1,-1,57,-1,-1,-1,-1,-1,-1,59,-1,-1,-1,-1,-1,-1,-1,-1,-1,-1,-1,-1,-1,-1],"loss_changes":[4.2915646E1,6.0965004E0,1.4481561E1,4.8252525E0,5.5886974E0,9.995908E0,7.637354E0,2.916504E0,1.9709549E0,4.5125923E0,3.3003368E0,6.2237406E0,4.2738743E0,5.179172E0,4.7578964E0,0E0,0E0,0E0,1.5807686E0,0E0,3.750906E-1,0E0,0E0,4.85925E0,2.9530916E0,2.3048592E0,0E0,4.1201334E0,1.06993675E-1,3.968193E0,2.0188203E0,6.9675446E-2,1.5588713E0,0E0,0E0,2.8086061E0,1.3963156E0,0E0,0E0,6.521969E-1,0E0,0E0,0E0,0E0,0E0,0E0,2.612606E0,0E0,0E0,0E0,0E0,0E0,0E0,0E0,0E0,0E0,0E0,0E0,0E0,0E0,0E0],"parents":[2147483647,0,0,1,1,2,2,3,3,4,4,5,5,6,6,7,7,8,8,9,9,10,10,11,11,12,12,13,13,14,14,18,18,20,20,23,23,24,24,25,25,27,27,28,28,29,29,30,30,31,31,32,32,35,35,36,36,39,39,46,46],"right_children":[2,4,6,8,10,12,14,16,18,20,22,24,26,28,30,-1,-1,-1,32,-1,34,-1,-1,36,38,40,-1,42,44,46,48,50,52,-1,-1,54,56,-1,-1,58,-1,-1,-1,-1,-1,-1,60,-1,-1,-1,-1,-1,-1,-1,-1,-1,-1,-1,-1,-1,-1],"split_conditions":[4.0882865E-1,9.540435E-1,8.0604506E-1,1.1922033E-1,4.5271903E-1,1.4425856E0,3.8809434E-1,1.2100557E0,4.167403E-2,2.942093E-1,3.605469E-1,1.2875259E0,1.6678101E0,9.0965825E-1,2.1451912E0,-1.8282169E-1,2.6043567E-1,-3.4381745E-3,1.9230664E0,2.147003E-1,2.2560768E0,-1.0923342E-1,3.1837976E-1,1.1375347E0,2.6792845E-1,1.337936E0,-1.6110517E-1,1.8814608E-1,5.509625E-1,4.3708276E-2,9.118691E-1,1.2161086E-1,9.2415255E-1,-3.1075835E-1,-5.1783103E-2,4.8659164E-1,6.7943573E-1,-1.6890869E-1,2.755165E-1,4.0340573E-1,-5.3542923E-2,1.9341326E-1,-3.3926702E-1,5.8311578E-2,2.6396054E-1,-1.292276E-1,1.8163359E0,1.283305E-1,-2.887879E-1,-1.4108895E-1,-3.6329636E-1,-2.1970426E-1,1.3579503E-1,-4.4815756E-2,-3.6462212E-1,-1.0439656E-1,2.4077223E-1,4.580093E-2,3.4288782E-1,3.3018646E-1,-2.7401602E-2],"split_indices":[306,0,120,374,155,343,155,237,386,169,433,410,18,485,40,0,0,0,254,0,32,0,0,225,344,458,0,449,147,99,240,85,96,0,0,426,390,0,0,43,0,0,0,0,0,0,91,0,0,0,0,0,0,0,0,0,0,0,0,0,0],"split_type":[0,0,0,0,0,0,0,0,0,0,0,0,0,0,0,0,0,0,0,0,0,0,0,0,0,0,0,0,0,0,0,0,0,0,0,0,0,0,0,0,0,0,0,0,0,0,0,0,0,0,0,0,0,0,0,0,0,0,0,0,0],"sum_hessian":[1.3524916E2,4.9805504E1,8.544366E1,3.6179996E1,1.3625506E1,3.338875E1,5.205491E1,3.3798618E0,3.2800137E1,8.212393E0,5.413114E0,2.129949E1,1.2089259E1,7.998887E0,4.4056023E1,1.7008328E0,1.679029E0,1.7355208E0,3.1064613E1,1.2749728E0,6.9374194E0,1.9098827E0,3.5032313E0,1.690947E1,4.390021E0,1.009911E1,1.9901494E0,4.9709E0,3.0279872E0,4.1687305E1,2.3687177E0,2.8437168E1,2.627445E0,5.9073796E0,1.0300398E0,1.4284106E1,2.625363E0,1.1835188E0,3.206502E0,8.584974E0,1.5141357E0,1.0441461E0,3.926754E0,1.004079E0,2.0239081E0,1.3844687E0,4.0302837E1,1.1851336E0,1.1835842E0,1.8502058E0,2.6586964E1,1.5406395E0,1.0868056E0,3.5178628E0,1.0766243E1,1.0340986E0,1.5912645E0,1.0881627E0,7.4968114E0,3.8528397E1,1.774441E0],"tree_param":{"num_deleted":"0","num_feature":"512","num_nodes":"61","size_leaf_vector":"1"}},{"base_weights":[-2.913902E-3,-4.6603268E-1,5.4650956E-1,-7.149692E-1,4.025624E-2,-3.3949456E-1,6.889989E-1,3.0189416E-1,-8.1924E-1,-5.8842474E-1,5.315991E-1,3.2866922E-1,-8.971621E-1,-3.259845E-1,7.938862E-1,-1.8470557E-1,7.402364E-1,1.8739289E-1,-8.762298E-1,1.590001E-1,-8.9790434E-1,9.1979086E-1,-2.4572797E-1,2.1725185E-1,-1.0106754E-1,-3.3603936E-1,-2.7989484E-2,-2.725304E-1,3.5934827E-1,8.637247E-1,-1.7058957E-1,3.0139148E-2,2.8437477E-1,-3.314796E-2,-9.92368E-1,1.4561335E-2,-3.1830105E-1,-6.586072E-2,1.103881E0,4.250268E-1,-2.5973466E-1,1.8821582E-1,-2.7487773E-2,9.5226395E-1,-7.034846E-2,-2.0568009E-1,1.7579573E-1,-3.0972394E-1,6.722393E-3,8.7275535E-2,3.5500404E-1,2.2741345E-1,-3.752388E-2,-5.3252574E-2,3.0994245E-1,-1.9761834E-1,1.8381567E-1],"categories":[],"categories_nodes":[],"categories_segments":[],"categories_sizes":[],"default_left":[0,0,0,0,0,0,0,0,0,0,0,0,0,0,0,0,0,0,0,0,0,0,0,0,0,0,0,0,0,0,0,0,0,0,0,0,0,0,0,0,0,0,0,0,0,0,0,0,0,0,0,0,0,0,0,0,0],"id":5,"left_children":[1,3,5,7,9,11,13,15,17,19,21,23,25,27,29,-1,31,-1,33,-1,35,37,39,-1,-1,-1,-1,-1,41,43,-1,-1,-1,45,47,-1,-1,-1,49,51,-1,-1,-1,53,55,-1,-1,-1,-1,-1,-1,-1,-1,-1,-1,-1,-1],"loss_changes":[2.9771992E1,8.030184E0,6.990467E0,4.765566E0,7.069308E0,3.307267E0,5.2021484E0,2.3437264E0,3.7498684E0,3.9614367E0,4.08931E0,1.4047594E0,7.333803E-1,2.3454428E0,4.5235233E0,0E0,3.8715327E-1,0E0,3.6739006E0,0E0,1.3263407E0,2.077457E0,2.4696856E0,0E0,0E0,0E0,0E0,0E0,4.24991E-1,3.4335632E0,0E0,0E0,0E0,2.6712518E0,1.3738785E0,0E0,0E0,0E0,1.5307617E-1,6.623834E-1,0E0,0E0,0E0,3.587185E0,2.194372E0,0E0,0E0,0E0,0E0,0E0,0E0,0E0,0E0,0E0,0E0,0E0,0E0],"parents":[2147483647,0,0,1,1,2,2,3,3,4,4,5,5,6,6,7,7,8,8,9,9,10,10,11,11,12,12,13,13,14,14,16,16,18,18,20,20,21,21,22,22,28,28,29,29,33,33,34,34,38,38,39,39,43,43,44,44],"right_children":[2,4,6,8,10,12,14,16,18,20,22,24,26,28,30,-1,32,-1,34,-1,36,38,40,-1,-1,-1,-1,-1,42,44,-1,-1,-1,46,48,-1,-1,-1,50,52,-1,-1,-1,54,56,-1,-1,-1,-1,-1,-1,-1,-1,-1,-1,-1,-1],"split_conditions":[7.647492E-1,8.792236E-1,2.885084E-1,4.2682216E-2,5.57687E-1,7.361232E-1,2.1261068E-1,5.754769E-1,4.72174E-2,2.847481E-1,1.052383E0,1.3452944E0,6.818699E-1,7.326859E-1,2.577481E0,-1.8470557E-1,5.901617E-1,1.8739289E-1,3.038949E-1,1.590001E-1,3.7188137E-1,3.3064917E-1,9.765478E-1,2.1725185E-1,-1.0106754E-1,-3.3603936E-1,-2.7989484E-2,-2.725304E-1,4.9489695E-1,1.9887172E0,-1.7058957E-1,3.0139148E-2,2.8437477E-1,8.253088E-1,1.3333937E0,1.4561335E-2,-3.1830105E-1,-6.586072E-2,3.5399574E-1,5.631647E-1,-2.5973466E-1,1.8821582E-1,-2.7487773E-2,2.1502158E-1,1.0602223E0,-2.0568009E-1,1.7579573E-1,-3.0972394E-1,6.722393E-3,8.7275535E-2,3.5500404E-1,2.2741345E-1,-3.752388E-2,-5.3252574E-2,3.0994245E-1,-1.9761834E-1,1.8381567E-1],"split_indices":[306,120,225,386,322,396,327,383,458,501,142,294,251,219,235,0,112,0,267,0,443,1,304,0,0,0,0,0,232,40,0,0,0,165,155,0,0,0,287,321,0,0,0,469,43,0,0,0,0,0,0,0,0,0,0,0,0],"split_type":[0,0,0,0,0,0,0,0,0,0,0,0,0,0,0,0,0,0,0,0,0,0,0,0,0,0,0,0,0,0,0,0,0,0,0,0,0,0,0,0,0,0,0,0,0,0,0,0,0,0,0,0,0,0,0,0,0],"sum_hessian":[1.1500507E2,6.2486164E1,5.2518913E1,4.161323E1,2.087293E1,7.084516E0,4.54344E1,3.693956E0,3.7919277E1,9.07006E0,1.1802871E1,3.40977E0,3.674746E0,4.0579634E0,4.1376434E1,1.0633903E0,2.6305656E0,1.0616223E0,3.6857655E1,1.8113798E0,7.25868E0,7.749533E0,4.0533376E0,2.0835662E0,1.3262038E0,2.5687995E0,1.1059463E0,2.017659E0,2.0403044E0,3.9707245E1,1.66919E0,1.0082669E0,1.6222986E0,4.6181965E0,3.2239456E1,1.1702546E0,6.0884256E0,1.0511932E0,6.69834E0,2.0981543E0,1.9551833E0,1.0343539E0,1.0059507E0,3.6251545E1,3.455698E0,2.1963239E0,2.4218726E0,3.0998802E1,1.2406555E0,1.0114791E0,5.6868606E0,1.0715023E0,1.0266521E0,2.341968E0,3.390958E1,1.8756697E0,1.5800283E0],"tree_param":{"num_deleted":"0","num_feature":"512","num_nodes":"57","size_leaf_vector":"1"}},{"base_weights":[-2.453863E-3,-4.6495992E-1,4.0242818E-1,-6.445198E-1,3.310878E-1,-1.236425E-1,7.066221E-1,-8.5705686E-1,-1.4644553E-1,7.5409913E-1,-4.4226965E-1,4.193776E-1,-7.1790063E-1,-3.4577036E-1,8.108051E-1,5.747944E-2,-9.440026E-1,-7.2915375E-1,2.7987245E-1,-4.235904E-2,2.8621262E-1,7.8609675E-2,-2.3534852E-1,6.77524E-1,-1.6943468E-1,-8.8652056E-1,1.2089832E-1,-2.476999E-1,1.2955338E-1,2.8839575E-2,9.0454656E-1,-1.0051018E0,7.541942E-2,-2.7998292E-1,2.8145507E-2,8.064557E-1,-4.5017582E-1,8.6931235E-1,-7.614419E-2,-3.0767792E-1,1.5998464E-2,1.7594688E-1,-1.8851471E-1,-1.0452282E-2,9.6510106E-1,-3.1530237E-1,-8.649756E-4,3.1514302E-1,-1.9613357E-2,-2.3643398E-1,3.984003E-2,3.0323561E-2,2.991514E-1,3.0823398E-1,1.4997056E-3],"categories":[],"categories_nodes":[],"categories_segments":[],"categories_sizes":[],"default_left":[0,0,0,0,0,0,0,0,0,0,0,0,0,0,0,0,0,0,0,0,0,0,0,0,0,0,0,0,0,0,0,0,0,0,0,0,0,0,0,0,0,0,0,0,0,0,0,0,0,0,0,0,0,0,0],"id":6,"left_children":[1,3,5,7,9,11,13,15,17,19,21,23,25,27,29,-1,31,33,35,-1,-1,-1,-1,37,-1,39,-1,-1,-1,41,43,45,-1,-1,-1,47,49,51,-1,-1,-1,-1,-1,-1,53,-1,-1,-1,-1,-1,-1,-1,-1,-1,-1],"loss_changes":[1.8781012E1,6.9047422E0,8.645876E0,3.9539185E0,3.3682232E0,6.898787E0,4.0120792E0,2.624792E0,3.3669264E0,1.2743092E0,1.1480639E0,3.25723E0,2.2720838E0,1.7622845E0,2.2659988E0,0E0,2.072853E0,1.0378067E0,3.4674335E0,0E0,0E0,0E0,0E0,1.9029131E0,0E0,1.2465849E0,0E0,0E0,0E0,1.973865E0,1.6200447E0,1.096981E0,0E0,0E0,0E0,1.1429634E0,8.9775234E-1,6.8853617E-1,0E0,0E0,0E0,0E0,0E0,0E0,1.565218E0,0E0,0E0,0E0,0E0,0E0,0E0,0E0,0E0,0E0,0E0],"parents":[2147483647,0,0,1,1,2,2,3,3,4,4,5,5,6,6,7,7,8,8,9,9,10,10,11,11,12,12,13,13,14,14,16,16,17,17,18,18,23,23,25,25,29,29,30,30,31,31,35,35,36,36,37,37,44,44],"right_children":[2,4,6,8,10,12,14,16,18,20,22,24,26,28,30,-1,32,34,36,-1,-1,-1,-1,38,-1,40,-1,-1,-1,42,44,46,-1,-1,-1,48,50,52,-1,-1,-1,-1,-1,-1,54,-1,-1,-1,-1,-1,-1,-1,-1,-1,-1],"split_conditions":[5.5168E-1,1.345834E0,5.9832263E-1,1.1287144E0,1.013714E0,7.685931E-1,2.2476111E-1,6.284266E-2,4.043336E-1,5.486434E-1,7.118558E-1,1.398341E0,1.3077142E0,8.7303007E-1,2.9165372E-1,5.747944E-2,2.272012E0,1.0643736E0,1.3117152E0,-4.235904E-2,2.8621262E-1,7.8609675E-2,-2.3534852E-1,1.3886291E0,-1.6943468E-1,1.5444794E0,1.2089832E-1,-2.476999E-1,1.2955338E-1,1.4900955E0,1.9973484E-1,2.0739875E0,7.541942E-2,-2.7998292E-1,2.8145507E-2,1.0894523E0,5.1964873E-1,1.3567084E-1,-7.614419E-2,-3.0767792E-1,1.5998464E-2,1.7594688E-1,-1.8851471E-1,-1.0452282E-2,1.9449518E0,-3.1530237E-1,-8.649756E-4,3.1514302E-1,-1.9613357E-2,-2.3643398E-1,3.984003E-2,3.0323561E-2,2.991514E-1,3.0823398E-1,1.4997056E-3],"split_indices":[155,265,327,34,324,423,270,371,199,70,370,116,473,274,447,0,204,70,161,0,0,0,0,200,0,40,0,0,0,83,239,417,0,0,0,312,354,176,0,0,0,0,0,0,91,0,0,0,0,0,0,0,0,0,0],"split_type":[0,0,0,0,0,0,0,0,0,0,0,0,0,0,0,0,0,0,0,0,0,0,0,0,0,0,0,0,0,0,0,0,0,0,0,0,0,0,0,0,0,0,0,0,0,0,0,0,0,0,0,0,0,0,0],"sum_hessian":[9.829435E1,4.581287E1,5.2481476E1,3.753636E1,8.276509E0,1.9445726E1,3.303575E1,2.5804419E1,1.1731942E1,5.366204E0,2.9103057E0,1.031468E1,9.131046E0,2.7669399E0,3.026881E1,1.8835247E0,2.3920895E1,4.65667E0,7.0752726E0,1.0332729E0,4.332931E0,1.0283284E0,1.8819774E0,8.418159E0,1.8965219E0,8.118803E0,1.0122426E0,1.6727986E0,1.0941412E0,3.380154E0,2.6888657E1,2.2909157E1,1.0117373E0,3.6238189E0,1.0328511E0,4.049622E0,3.0256503E0,7.0358744E0,1.3822838E0,6.992821E0,1.1259822E0,1.8868192E0,1.4933347E0,1.6540385E0,2.523462E1,2.1859224E1,1.0499321E0,3.003934E0,1.0456884E0,1.6926064E0,1.3330438E0,1.2593976E0,5.776477E0,2.3630028E1,1.6045907E0],"tree_param":{"num_deleted":"0","num_feature":"512","num_nodes":"55","size_leaf_vector":"1"}},{"base_weights":[-3.1231886E-3,-3.7736988E-1,4.2810974E-1,-1.8187802E-2,-7.3475426E-1,-1.7997992E-1,6.0573727E-1,-5.3967863E-1,3.156913E-1,-8.230829E-1,1.2990181E-1,-6.0002476E-1,3.714543E-1,-1.2128081E-1,7.271255E-1,2.3351243E-1,-2.8250122E-1,7.4174374E-1,-2.6089376E-1,-9.267466E-1,6.660389E-3,-2.5866076E-1,9.310217E-2,2.0889045E-1,-1.2819335E-1,-6.5134215E-1,1.7900512E-1,8.2529896E-1,-1.9703145E-1,-1.4278837E-1,2.1775976E-1,-5.3683884E-2,2.9411992E-1,3.9963517E-1,-6.652991E-1,-9.951961E-1,3.1129038E-2,1.6538282E-1,-1.7664817E-1,3.7651636E-2,-3.0777514E-1,9.1615516E-1,-6.459756E-2,-1.9181721E-1,1.1542801E-1,-1.5260395E-1,1.266558E-1,2.2723933E-1,-6.62299E-2,-9.376055E-3,-2.497188E-1,-3.187583E-1,-1.1227173E-1,-1.4503578E-2,2.8903484E-1],"categories":[],"categories_nodes":[],"categories_segments":[],"categories_sizes":[],"default_left":[0,0,0,0,0,0,0,0,0,0,0,0,0,0,0,0,0,0,0,0,0,0,0,0,0,0,0,0,0,0,0,0,0,0,0,0,0,0,0,0,0,0,0,0,0,0,0,0,0,0,0,0,0,0,0],"id":7,"left_children":[1,3,5,7,9,11,13,15,17,19,-1,21,23,25,27,29,-1,31,33,35,37,-1,-1,-1,-1,39,-1,41,43,-1,-1,45,-1,47,49,51,-1,-1,-1,-1,-1,53,-1,-1,-1,-1,-1,-1,-1,-1,-1,-1,-1,-1,-1],"loss_changes":[1.3887444E1,5.8997784E0,4.427895E0,4.3491187E0,2.7354488E0,2.4952078E0,2.839366E0,3.2463253E0,3.9429307E0,1.8802128E0,0E0,1.687923E0,1.5584317E0,2.4122655E0,2.5992765E0,1.7888474E0,0E0,1.7682376E0,2.1959584E0,1.4699326E0,1.4313456E0,0E0,0E0,0E0,0E0,1.1580107E0,0E0,2.5108967E0,1.1175174E0,0E0,0E0,8.7163883E-1,0E0,9.150414E-1,4.885583E-1,3.6592102E-1,0E0,0E0,0E0,0E0,0E0,1.0818615E0,0E0,0E0,0E0,0E0,0E0,0E0,0E0,0E0,0E0,0E0,0E0,0E0,0E0],"parents":[2147483647,0,0,1,1,2,2,3,3,4,4,5,5,6,6,7,7,8,8,9,9,11,11,12,12,13,13,14,14,15,15,17,17,18,18,19,19,20,20,25,25,27,27,28,28,31,31,33,33,34,34,35,35,41,41],"right_children":[2,4,6,8,10,12,14,16,18,20,-1,22,24,26,28,30,-1,32,34,36,38,-1,-1,-1,-1,40,-1,42,44,-1,-1,46,-1,48,50,52,-1,-1,-1,-1,-1,54,-1,-1,-1,-1,-1,-1,-1,-1,-1,-1,-1,-1,-1],"split_conditions":[7.559809E-1,8.641803E-1,5.1227295E-1,3.0599383E-1,2.280325E0,8.740347E-1,1.8812077E-1,2.926821E-1,7.7676517E-1,1.8251059E0,1.2990181E-1,1.2797529E0,1.1718729E0,9.250725E-1,2.4170349E0,3.459286E-1,-2.8250122E-1,3.0486706E-1,4.7956732E-1,1.6029475E0,1.0847039E0,-2.5866076E-1,9.310217E-2,2.0889045E-1,-1.2819335E-1,6.9132566E-1,1.7900512E-1,1.6115506E0,9.101921E-1,-1.4278837E-1,2.1775976E-1,5.9740055E-1,2.9411992E-1,3.75575E-1,7.587829E-1,9.2523974E-1,3.1129038E-2,1.6538282E-1,-1.7664817E-1,3.7651636E-2,-3.0777514E-1,1.1063904E-1,-6.459756E-2,-1.9181721E-1,1.1542801E-1,-1.5260395E-1,1.266558E-1,2.2723933E-1,-6.62299E-2,-9.376055E-3,-2.497188E-1,-3.187583E-1,-1.1227173E-1,-1.4503578E-2,2.8903484E-1],"split_indices":[306,324,153,155,173,120,227,124,423,212,0,206,219,367,488,227,0,103,253,473,288,0,0,0,0,277,0,273,255,0,0,418,0,84,280,295,0,0,0,0,0,298,0,0,0,0,0,0,0,0,0,0,0,0,0],"split_type":[0,0,0,0,0,0,0,0,0,0,0,0,0,0,0,0,0,0,0,0,0,0,0,0,0,0,0,0,0,0,0,0,0,0,0,0,0,0,0,0,0,0,0,0,0,0,0,0,0,0,0,0,0,0,0],"sum_hessian":[8.404927E1,4.506467E1,3.8984596E1,2.2999937E1,2.2064735E1,8.810276E0,3.017432E1,8.737037E0,1.42629E1,2.078754E1,1.2771949E0,4.9509015E0,3.8593743E0,4.317407E0,2.5856913E1,3.1320212E0,5.6050153E0,8.037418E0,6.2254825E0,1.8374962E1,2.4125774E0,3.8849676E0,1.0659338E0,2.8347838E0,1.0245905E0,2.5371008E0,1.7803063E0,2.3470594E1,2.3863177E0,1.296737E0,1.8352841E0,2.0338297E0,6.003588E0,2.3685863E0,3.8568964E0,1.72626E1,1.1123633E0,1.2988924E0,1.1136849E0,1.0416713E0,1.4954295E0,2.1695948E1,1.7746482E0,1.2993597E0,1.086958E0,1.0044717E0,1.029358E0,1.3620628E0,1.0065236E0,1.0520294E0,2.804867E0,1.4932343E1,2.330257E0,1.0130932E0,2.0682854E1],"tree_param":{"num_deleted":"0","num_feature":"512","num_nodes":"55","size_leaf_vector":"1"}},{"base_weights":[-7.876167E-3,-3.210948E-1,4.3464395E-1,-5.0131977E-1,2.9587537E-1,7.062191E-1,2.2507492E-2,-6.25509E-1,2.6504576E-1,6.2769985E-1,-4.2107463E-1,-9.8411106E-2,8.1824344E-1,-4.023181E-1,4.1211733E-1,-7.546554E-1,2.3544972E-1,-1.4427572E-1,6.218777E-1,8.063902E-1,-4.7609687E-2,-2.0273091E-1,3.4650624E-2,9.250068E-1,5.9676148E-2,2.511228E-1,-7.305368E-1,-8.511281E-2,6.679711E-1,-8.2613444E-1,9.555706E-2,6.2188727E-1,-1.6365556E-1,2.1941423E-2,2.3896904E-1,2.8752774E-1,1.7721044E-2,9.9069256E-1,8.345573E-3,1.718012E-1,-1.4151749E-1,-3.8871996E-2,1.51191E-1,-1.8365491E-2,-2.7714244E-1,-1.2727865E-2,2.4976459E-1,5.2738726E-2,-2.6434737E-1,5.5366173E-2,2.1675901E-1,9.419712E-2,3.090278E-1],"categories":[],"categories_nodes":[],"categories_segments":[],"categories_sizes":[],"default_left":[0,0,0,0,0,0,0,0,0,0,0,0,0,0,0,0,0,0,0,0,0,0,0,0,0,0,0,0,0,0,0,0,0,0,0,0,0,0,0,0,0,0,0,0,0,0,0,0,0,0,0,0,0],"id":8,"left_children":[1,3,5,7,9,11,13,15,17,19,21,-1,23,25,27,29,31,-1,33,35,-1,-1,-1,37,39,41,43,-1,45,47,-1,49,-1,-1,-1,-1,-1,51,-1,-1,-1,-1,-1,-1,-1,-1,-1,-1,-1,-1,-1,-1,-1],"loss_changes":[1.0214717E1,4.945005E0,3.403586E0,3.3785772E0,2.7340264E0,2.3983212E0,2.3453362E0,3.440774E0,1.7390835E0,1.1816344E0,6.0872537E-1,0E0,1.3112764E0,1.6430136E0,1.5002944E0,2.2389526E0,1.7245346E0,0E0,3.3431947E-1,6.562681E-1,0E0,0E0,0E0,8.4004974E-1,1.1290431E0,3.5595843E-1,5.625379E-1,0E0,6.995666E-1,1.5015411E0,0E0,2.2376895E-2,0E0,0E0,0E0,0E0,0E0,4.153347E-2,0E0,0E0,0E0,0E0,0E0,0E0,0E0,0E0,0E0,0E0,0E0,0E0,0E0,0E0,0E0],"parents":[2147483647,0,0,1,1,2,2,3,3,4,4,5,5,6,6,7,7,8,8,9,9,10,10,12,12,13,13,14,14,15,15,16,16,18,18,19,19,23,23,24,24,25,25,26,26,28,28,29,29,31,31,37,37],"right_children":[2,4,6,8,10,12,14,16,18,20,22,-1,24,26,28,30,32,-1,34,36,-1,-1,-1,38,40,42,44,-1,46,48,-1,50,-1,-1,-1,-1,-1,52,-1,-1,-1,-1,-1,-1,-1,-1,-1,-1,-1,-1,-1,-1,-1],"split_conditions":[7.87045E-1,1.1279382E0,9.0934634E-1,2.252798E0,1.3499522E0,2.2151496E-1,9.241365E-1,1.2525616E0,5.574908E-1,1.2138748E0,5.749926E-1,-9.8411106E-2,1.2822906E0,6.9902897E-1,2.5470233E-1,1.7890247E0,8.1391406E-1,-1.4427572E-1,7.8710675E-1,7.57467E-1,-4.7609687E-2,-2.0273091E-1,3.4650624E-2,1.8324671E0,7.373716E-1,6.652895E-1,5.185208E-1,-8.511281E-2,3.6130026E-1,2.9186105E-2,9.555706E-2,8.758387E-1,-1.6365556E-1,2.1941423E-2,2.3896904E-1,2.8752774E-1,1.7721044E-2,1.6817881E-1,8.345573E-3,1.718012E-1,-1.4151749E-1,-3.8871996E-2,1.51191E-1,-1.8365491E-2,-2.7714244E-1,-1.2727865E-2,2.4976459E-1,5.2738726E-2,-2.6434737E-1,5.5366173E-2,2.1675901E-1,9.419712E-2,3.090278E-1],"split_indices":[73,473,203,141,7,270,322,361,493,486,367,0,53,426,254,144,423,0,318,305,0,0,0,102,221,397,501,0,153,458,0,299,0,0,0,0,0,279,0,0,0,0,0,0,0,0,0,0,0,0,0,0,0],"split_type":[0,0,0,0,0,0,0,0,0,0,0,0,0,0,0,0,0,0,0,0,0,0,0,0,0,0,0,0,0,0,0,0,0,0,0,0,0,0,0,0,0,0,0,0,0,0,0,0,0,0,0,0,0],"sum_hessian":[7.16894E1,4.213814E1,2.9551258E1,3.275688E1,9.381259E0,1.738316E1,1.21680975E1,2.8347052E1,4.409831E0,6.4981976E0,2.8830614E0,1.5103848E0,1.5872775E1,5.805374E0,6.3627234E0,2.4756912E1,3.5901406E0,1.3143685E0,3.0954626E0,5.274314E0,1.2238837E0,1.7791494E0,1.103912E0,1.3722072E1,2.150704E0,2.0195682E0,3.7858062E0,1.6813112E0,4.681412E0,2.3426771E1,1.3301405E0,2.537992E0,1.0521485E0,1.0900327E0,2.00543E0,4.1479645E0,1.1263493E0,1.2688864E1,1.0332079E0,1.0547887E0,1.0959151E0,1.0005882E0,1.0189801E0,1.1432743E0,2.6425319E0,1.0201511E0,3.661261E0,1.1052985E0,2.2321472E1,1.0049278E0,1.5330644E0,1.1916353E0,1.1497229E1],"tree_param":{"num_deleted":"0","num_feature":"512","num_nodes":"53","size_leaf_vector":"1"}},{"base_weights":[3.7499487E-3,-3.5574177E-1,3.2271403E-1,-6.9583243E-1,-4.6481818E-2,-8.4641166E-2,6.098812E-1,-8.290255E-1,5.2450802E-2,2.8452143E-1,-5.60608E-1,4.505487E-1,-3.8221112E-1,-1.10470474E-1,6.871425E-1,-9.1694444E-1,9.837144E-3,1.4549151E-1,-1.2798844E-1,-3.1414938E-1,6.561287E-1,-7.713592E-1,5.482441E-2,-6.1285757E-2,6.5078634E-1,1.3447206E-1,-7.291372E-1,7.7865326E-1,-6.963463E-2,-2.9720178E-1,-6.564916E-2,-2.0288293E-1,8.888048E-2,8.3045995E-1,-5.2781332E-2,-2.676042E-1,-3.3417474E-2,2.4027379E-1,2.1699557E-2,2.0358488E-1,-3.500204E-1,-2.6279157E-1,-9.715999E-3,-1.2495017E-2,8.614698E-1,4.4372868E-2,2.8693366E-1,-1.8775176E-1,4.11587E-2,2.7533972E-1,2.5838944E-3],"categories":[],"categories_nodes":[],"categories_segments":[],"categories_sizes":[],"default_left":[0,0,0,0,0,0,0,0,0,0,0,0,0,0,0,0,0,0,0,0,0,0,0,0,0,0,0,0,0,0,0,0,0,0,0,0,0,0,0,0,0,0,0,0,0,0,0,0,0,0,0],"id":9,"left_children":[1,3,5,7,9,11,13,15,17,19,21,23,25,-1,27,29,-1,-1,-1,31,33,35,-1,-1,37,39,41,43,-1,-1,-1,-1,-1,45,-1,-1,-1,-1,-1,-1,47,-1,-1,-1,49,-1,-1,-1,-1,-1,-1],"loss_changes":[7.4015064E0,3.1599224E0,4.051866E0,1.477047E0,3.0470562E0,2.5638225E0,1.777956E0,9.597454E-1,8.521389E-1,2.6500902E0,1.2348337E0,8.9675283E-1,1.9250215E0,0E0,1.7833052E0,3.5805702E-1,0E0,0E0,0E0,1.2798731E0,1.1762891E0,3.4906578E-1,0E0,0E0,3.5021675E-1,1.5395358E0,6.114154E-1,1.2285023E0,0E0,0E0,0E0,0E0,0E0,3.7848663E-1,0E0,0E0,0E0,0E0,0E0,0E0,5.25601E-1,0E0,0E0,0E0,7.6034737E-1,0E0,0E0,0E0,0E0,0E0,0E0],"parents":[2147483647,0,0,1,1,2,2,3,3,4,4,5,5,6,6,7,7,8,8,9,9,10,10,11,11,12,12,14,14,15,15,19,19,20,20,21,21,24,24,25,25,26,26,27,27,33,33,40,40,44,44],"right_children":[2,4,6,8,10,12,14,16,18,20,22,24,26,-1,28,30,-1,-1,-1,32,34,36,-1,-1,38,40,42,44,-1,-1,-1,-1,-1,46,-1,-1,-1,-1,-1,-1,48,-1,-1,-1,50,-1,-1,-1,-1,-1,-1],"split_conditions":[5.5168E-1,4.545296E-1,7.8592455E-1,1.4387201E0,9.641276E-1,4.0933454E-1,1.1161483E-1,1.5900319E0,1.1276506E0,6.818487E-1,1.6700317E0,3.429475E-1,7.1306807E-1,-1.10470474E-1,1.6115506E0,1.1928835E0,9.837144E-3,1.4549151E-1,-1.2798844E-1,1.1447606E0,1.0545564E0,1.1180423E0,5.482441E-2,-6.1285757E-2,9.518125E-1,5.9513247E-1,1.2288958E0,6.543093E-1,-6.963463E-2,-2.9720178E-1,-6.564916E-2,-2.0288293E-1,8.888048E-2,4.1407683E-1,-5.2781332E-2,-2.676042E-1,-3.3417474E-2,2.4027379E-1,2.1699557E-2,2.0358488E-1,7.308405E-1,-2.6279157E-1,-9.715999E-3,-1.2495017E-2,1.6605638E0,4.4372868E-2,2.8693366E-1,-1.8775176E-1,4.11587E-2,2.7533972E-1,2.5838944E-3],"split_indices":[155,90,322,153,305,234,239,361,21,144,321,473,23,0,273,29,0,0,0,14,41,175,0,0,348,486,338,155,0,0,0,0,0,178,0,0,0,0,0,0,14,0,0,0,482,0,0,0,0,0,0],"split_type":[0,0,0,0,0,0,0,0,0,0,0,0,0,0,0,0,0,0,0,0,0,0,0,0,0,0,0,0,0,0,0,0,0,0,0,0,0,0,0,0,0,0,0,0,0,0,0,0,0,0,0],"sum_hessian":[6.254779E1,2.9351536E1,3.3196255E1,1.3383652E1,1.5967884E1,1.4017404E1,1.917885E1,1.12697525E1,2.1138997E0,9.985585E0,5.982299E0,4.825136E0,9.192268E0,1.1283251E0,1.8050524E1,1.0168442E1,1.1013104E0,1.104467E0,1.0094326E0,3.883602E0,6.1019835E0,4.6315284E0,1.3507705E0,1.1251981E0,3.6999378E0,3.9386928E0,5.2535753E0,1.6555412E1,1.4951121E0,8.8180895E0,1.3503529E0,2.369825E0,1.5137771E0,5.0465755E0,1.0554079E0,3.6184108E0,1.0131178E0,2.6322238E0,1.0677141E0,1.6664225E0,2.2722704E0,4.1266847E0,1.1268907E0,1.5637228E0,1.499169E1,1.125108E0,3.9214675E0,1.269226E0,1.0030445E0,1.3991442E1,1.0002477E0],"tree_param":{"num_deleted":"0","num_feature":"512","num_nodes":"51","size_leaf_vector":"1"}},{"base_weights":[-2.5306249E-3,-4.0279543E-1,2.5155255E-1,-7.5525707E-1,-3.6989693E-2,-1.928411E-1,4.9942508E-1,6.6988036E-2,-8.767278E-1,2.3146643E-1,-2.205966E-1,-5.969732E-1,1.3300632E-1,6.949626E-1,-8.641444E-2,-5.194222E-2,-2.811505E-1,5.285713E-1,-2.8686833E-1,-2.5109982E-1,6.3365825E-2,-4.891102E-1,4.7256634E-1,5.69453E-2,8.296891E-1,3.8366035E-1,-5.8788073E-1,-1.5150348E-2,7.1408594E-1,-1.8007615E-1,8.5001186E-2,-2.3085928E-2,-1.9257765E-1,6.7859197E-1,-7.164682E-2,-1.1157424E-1,1.6361196E-1,9.062236E-1,-1.07643865E-2,1.8309379E-1,-3.674202E-2,-4.587685E-2,-2.0970438E-1,5.8265634E-2,2.41713E-1,2.5076923E-1,2.0483168E-2,7.595117E-2,2.8216496E-1],"categories":[],"categories_nodes":[],"categories_segments":[],"categories_sizes":[],"default_left":[0,0,0,0,0,0,0,0,0,0,0,0,0,0,0,0,0,0,0,0,0,0,0,0,0,0,0,0,0,0,0,0,0,0,0,0,0,0,0,0,0,0,0,0,0,0,0,0,0],"id":10,"left_children":[1,3,5,7,9,11,13,-1,15,17,-1,19,21,23,25,-1,-1,27,29,-1,-1,31,33,35,37,39,41,-1,43,-1,-1,-1,-1,45,-1,-1,-1,47,-1,-1,-1,-1,-1,-1,-1,-1,-1,-1,-1],"loss_changes":[5.74827E0,2.8014686E0,3.905439E0,1.5181174E0,2.3861318E0,1.8049096E0,2.6348877E0,0E0,2.672124E-1,1.5835949E0,0E0,1.3467722E0,1.9363217E0,1.4108429E0,1.7611265E0,0E0,0E0,7.088077E-1,8.91302E-1,0E0,0E0,1.6106689E-1,1.0019459E0,1.0472214E0,9.5543766E-1,5.298798E-1,6.455088E-2,0E0,7.257819E-2,0E0,0E0,0E0,0E0,3.9452767E-1,0E0,0E0,0E0,4.966736E-2,0E0,0E0,0E0,0E0,0E0,0E0,0E0,0E0,0E0,0E0,0E0],"parents":[2147483647,0,0,1,1,2,2,3,3,4,4,5,5,6,6,8,8,9,9,11,11,12,12,13,13,14,14,17,17,18,18,21,21,22,22,23,23,24,24,25,25,26,26,28,28,33,33,37,37],"right_children":[2,4,6,8,10,12,14,-1,16,18,-1,20,22,24,26,-1,-1,28,30,-1,-1,32,34,36,38,40,42,-1,44,-1,-1,-1,-1,46,-1,-1,-1,48,-1,-1,-1,-1,-1,-1,-1,-1,-1,-1,-1],"split_conditions":[5.626907E-1,5.431018E-1,6.9729835E-1,1.8312073E-1,1.4265145E0,4.6790338E-1,9.678884E-1,6.6988036E-2,2.2008185E-1,7.5862175E-1,-2.205966E-1,1.2724364E0,7.5600666E-1,1.8134399E-1,1.0629983E0,-5.194222E-2,-2.811505E-1,4.135077E-1,1.2453809E0,-2.5109982E-1,6.3365825E-2,1.4466541E0,1.2431469E0,8.464284E-1,2.121619E0,8.9694345E-1,6.8164045E-1,-1.5150348E-2,4.4457233E-1,-1.8007615E-1,8.5001186E-2,-2.3085928E-2,-1.9257765E-1,1.4029307E0,-7.164682E-2,-1.1157424E-1,1.6361196E-1,2.8851146E-1,-1.07643865E-2,1.8309379E-1,-3.674202E-2,-4.587685E-2,-2.0970438E-1,5.8265634E-2,2.41713E-1,2.5076923E-1,2.0483168E-2,7.595117E-2,2.8216496E-1],"split_indices":[70,227,14,91,324,279,305,0,142,273,0,473,178,353,461,0,0,28,407,0,0,369,285,484,267,426,442,0,469,0,0,0,0,460,0,0,0,378,0,0,0,0,0,0,0,0,0,0,0],"split_type":[0,0,0,0,0,0,0,0,0,0,0,0,0,0,0,0,0,0,0,0,0,0,0,0,0,0,0,0,0,0,0,0,0,0,0,0,0,0,0,0,0,0,0,0,0,0,0,0,0],"sum_hessian":[5.452522E1,2.0944862E1,3.3580357E1,1.0124781E1,1.0820083E1,1.2103262E1,2.1477093E1,1.0254726E0,9.099308E0,8.298485E0,2.521598E0,5.0312247E0,7.072037E0,1.5962853E1,5.51424E0,1.0255488E0,8.073759E0,5.262384E0,3.0361009E0,3.8516686E0,1.179556E0,2.341568E0,4.730469E0,3.0311353E0,1.2931718E1,2.967462E0,2.5467777E0,1.4534153E0,3.8089685E0,1.9252722E0,1.1108285E0,1.0400432E0,1.3015246E0,3.703888E0,1.0265813E0,1.7410083E0,1.290127E0,1.1838022E1,1.0936953E0,1.9074517E0,1.0600104E0,1.0018277E0,1.5449499E0,1.0381764E0,2.770792E0,2.650992E0,1.052896E0,1.0094157E0,1.0828607E1],"tree_param":{"num_deleted":"0","num_feature":"512","num_nodes":"49","size_leaf_vector":"1"}},{"base_weights":[-5.1185894E-3,-4.2083108E-1,2.1843334E-1,-6.395576E-1,6.8171725E-2,-3.490193E-2,5.111176E-1,4.035919E-2,-7.8828657E-1,-1.5353595E-1,3.461072E-1,4.893579E-1,-2.6999837E-1,1.2390122E-1,7.9827136E-1,-2.6409745E-1,-5.5927844E-3,-3.5809506E-2,2.0256488E-1,2.1801613E-1,-5.0311442E-2,-4.2071748E-1,1.613312E-1,-3.6649594E-1,4.8028448E-1,6.908949E-3,2.704321E-1,-6.30061E-1,1.2635899E-1,-1.8865705E-1,4.059397E-2,-1.2356544E-2,2.1154302E-1,-2.2674747E-1,4.7157723E-2,1.3702153E-1,-8.232361E-2],"categories":[],"categories_nodes":[],"categories_segments":[],"categories_sizes":[],"default_left":[0,0,0,0,0,0,0,0,0,0,0,0,0,0,0,0,0,0,0,0,0,0,0,0,0,0,0,0,0,0,0,0,0,0,0,0,0],"id":11,"left_children":[1,3,5,7,9,11,13,-1,15,-1,17,19,21,23,25,-1,-1,-1,-1,-1,-1,27,-1,29,31,-1,-1,33,35,-1,-1,-1,-1,-1,-1,-1,-1],"loss_changes":[4.616772E0,1.9012861E0,2.414337E0,1.4987621E0,1.1880332E0,2.3828332E0,1.5755925E0,0E0,7.127161E-1,0E0,8.214632E-1,1.0590794E0,1.8396176E0,1.5036249E0,6.561508E-1,0E0,0E0,0E0,0E0,0E0,0E0,1.4229157E0,0E0,5.806738E-1,5.956423E-1,0E0,0E0,9.752376E-1,6.654281E-1,0E0,0E0,0E0,0E0,0E0,0E0,0E0,0E0],"parents":[2147483647,0,0,1,1,2,2,3,3,4,4,5,5,6,6,8,8,10,10,11,11,12,12,13,13,14,14,21,21,23,23,24,24,27,27,28,28],"right_children":[2,4,6,8,10,12,14,-1,16,-1,18,20,22,24,26,-1,-1,-1,-1,-1,-1,28,-1,30,32,-1,-1,34,36,-1,-1,-1,-1,-1,-1,-1,-1],"split_conditions":[4.0882865E-1,9.540435E-1,9.508221E-1,1.6659395E-1,7.013157E-2,2.9622766E-1,9.158018E-1,4.035919E-2,1.9105891E0,-1.5353595E-1,6.455572E-1,1.4683949E0,1.7355455E0,5.489431E-1,1.8486513E-1,-2.6409745E-1,-5.5927844E-3,-3.5809506E-2,2.0256488E-1,2.1801613E-1,-5.0311442E-2,9.155876E-1,1.613312E-1,1.0720942E0,7.738684E-1,6.908949E-3,2.704321E-1,1.2953515E0,9.39116E-1,-1.8865705E-1,4.059397E-2,-1.2356544E-2,2.1154302E-1,-2.2674747E-1,4.7157723E-2,1.3702153E-1,-8.232361E-2],"split_indices":[306,0,367,374,306,234,322,0,480,0,269,7,173,54,254,0,0,0,0,0,0,327,0,141,14,0,0,410,287,0,0,0,0,0,0,0,0],"split_type":[0,0,0,0,0,0,0,0,0,0,0,0,0,0,0,0,0,0,0,0,0,0,0,0,0,0,0,0,0,0,0,0,0,0,0,0,0],"sum_hessian":[4.768919E1,1.6368393E1,3.1320799E1,1.1096948E1,5.2714453E0,1.726108E1,1.4059718E1,1.803863E0,9.293085E0,1.4352255E0,3.8362198E0,5.0091863E0,1.2251894E1,6.596313E0,7.463405E0,8.172022E0,1.121063E0,1.8528987E0,1.983321E0,3.6019688E0,1.4072171E0,1.0729138E1,1.5227556E0,2.7642384E0,3.8320749E0,1.0202416E0,6.443164E0,7.6500816E0,3.0790565E0,1.6489427E0,1.1152958E0,1.4006456E0,2.4314291E0,6.630741E0,1.0193402E0,1.6111996E0,1.467857E0],"tree_param":{"num_deleted":"0","num_feature":"512","num_nodes":"37","size_leaf_vector":"1"}},{"base_weights":[3.26242E-3,-2.7497542E-1,2.994179E-1,-4.0941456E-1,3.8764155E-1,4.5732647E-1,-2.3328574E-1,-6.306004E-1,-8.844657E-2,-9.522743E-2,2.0946144E-1,-2.1953331E-1,5.838154E-1,-4.491958E-1,8.523932E-2,5.284101E-2,-7.272198E-1,-3.9358968E-1,3.591568E-1,6.2946185E-2,-1.5425335E-1,-5.4149993E-2,6.557333E-1,-1.8500094E-1,1.5172604E-2,1.7105195E-3,-8.102254E-1,-6.080452E-1,7.418558E-2,2.0864876E-1,-3.3937603E-2,-3.492425E-2,7.325484E-1,-2.6727661E-1,-3.3991903E-2,-7.5625647E-3,-2.2885008E-1,2.4202128E-1,-2.4564024E-5],"categories":[],"categories_nodes":[],"categories_segments":[],"categories_sizes":[],"default_left":[0,0,0,0,0,0,0,0,0,0,0,0,0,0,0,0,0,0,0,0,0,0,0,0,0,0,0,0,0,0,0,0,0,0,0,0,0,0,0],"id":12,"left_children":[1,3,5,7,9,11,13,15,17,-1,-1,19,21,23,-1,-1,25,27,29,-1,-1,-1,31,-1,-1,-1,33,35,-1,-1,-1,-1,37,-1,-1,-1,-1,-1,-1],"loss_changes":[3.6449432E0,2.1909223E0,1.9086516E0,1.3251531E0,1.1766572E0,1.5717645E0,7.488005E-1,1.0129833E0,1.3841116E0,0E0,0E0,5.356801E-1,9.1428804E-1,3.9198405E-1,0E0,0E0,6.3326454E-1,9.595419E-1,7.476312E-1,0E0,0E0,0E0,8.830581E-1,0E0,0E0,0E0,4.2146206E-1,4.048314E-1,0E0,0E0,0E0,0E0,6.7244244E-1,0E0,0E0,0E0,0E0,0E0,0E0],"parents":[2147483647,0,0,1,1,2,2,3,3,4,4,5,5,6,6,7,7,8,8,11,11,12,12,13,13,16,16,17,17,18,18,22,22,26,26,27,27,32,32],"right_children":[2,4,6,8,10,12,14,16,18,-1,-1,20,22,24,-1,-1,26,28,30,-1,-1,-1,32,-1,-1,-1,34,36,-1,-1,-1,-1,38,-1,-1,-1,-1,-1,-1],"split_conditions":[8.555588E-1,1.3361568E0,1.3657644E0,8.7341917E-1,4.4284236E-1,3.231694E-1,1.2394823E0,2.089505E-1,1.097577E0,-9.522743E-2,2.0946144E-1,9.6443564E-1,1.3802096E-1,1.0833642E0,8.523932E-2,5.284101E-2,1.2040714E-1,1.1481609E0,7.145908E-1,6.2946185E-2,-1.5425335E-1,-5.4149993E-2,1.2667215E-1,-1.8500094E-1,1.5172604E-2,1.7105195E-3,1.7969079E0,3.4980986E-1,7.418558E-2,2.0864876E-1,-3.3937603E-2,-3.492425E-2,1.5783466E0,-2.6727661E-1,-3.3991903E-2,-7.5625647E-3,-2.2885008E-1,2.4202128E-1,-2.4564024E-5],"split_indices":[120,306,91,383,444,347,381,83,141,0,0,496,146,459,0,0,448,385,91,0,0,0,290,0,0,0,437,273,0,0,0,0,44,0,0,0,0,0,0],"split_type":[0,0,0,0,0,0,0,0,0,0,0,0,0,0,0,0,0,0,0,0,0,0,0,0,0,0,0,0,0,0,0,0,0,0,0,0,0,0,0],"sum_hessian":[4.223469E1,2.1812956E1,2.0421738E1,1.8451445E1,3.3615105E0,1.586145E1,4.560287E0,1.0352579E1,8.0988655E0,1.0211401E0,2.3403704E0,2.3815975E0,1.3479853E1,3.310652E0,1.2496349E0,1.0192459E0,9.333333E0,4.8875594E0,3.2113063E0,1.0863955E0,1.2952021E0,1.0294503E0,1.2450402E1,2.304505E0,1.006147E0,1.0442393E0,8.289094E0,3.7004929E0,1.1870669E0,1.5995485E0,1.6117578E0,1.0798833E0,1.1370519E1,7.1794143E0,1.1096797E0,1.0205595E0,2.6799333E0,1.023312E1,1.1373993E0],"tree_param":{"num_deleted":"0","num_feature":"512","num_nodes":"39","size_leaf_vector":"1"}},{"base_weights":[-1.3166539E-3,-2.5856197E-1,2.8675008E-1,-4.0121073E-1,3.2259282E-1,-3.391501E-1,4.069109E-1,1.240985E-1,-6.1302733E-1,5.4798627E-1,-6.825541E-2,-1.7713186E-1,3.757857E-2,6.134626E-1,-4.096215E-2,4.672399E-1,-1.1178797E-1,-7.057717E-1,2.2032926E-2,1.9765088E-1,4.1036922E-2,-4.612901E-2,7.0614815E-1,-4.0631154E-1,3.6609983E-1,2.6284482E-3,1.9449125E-1,-8.733361E-3,-7.7463156E-1,8.044766E-1,-2.4509313E-2,-1.9650893E-1,1.9832013E-2,-1.4470031E-2,1.6851048E-1,-2.4835849E-1,-4.4609018E-2,2.5746444E-1,5.85082E-2],"categories":[],"categories_nodes":[],"categories_segments":[],"categories_sizes":[],"default_left":[0,0,0,0,0,0,0,0,0,0,0,0,0,0,0,0,0,0,0,0,0,0,0,0,0,0,0,0,0,0,0,0,0,0,0,0,0,0,0],"id":13,"left_children":[1,3,5,7,9,11,13,15,17,19,-1,-1,-1,21,23,25,-1,27,-1,-1,-1,-1,29,31,33,-1,-1,-1,35,37,-1,-1,-1,-1,-1,-1,-1,-1,-1],"loss_changes":[2.9417245E0,1.8676829E0,1.5465859E0,1.998935E0,7.057866E-1,4.896407E-1,1.5207274E0,1.162266E0,8.4662294E-1,7.478738E-2,0E0,0E0,0E0,8.998256E-1,1.0470352E0,3.157907E-1,0E0,4.9428272E-1,0E0,0E0,0E0,0E0,8.486476E-1,4.7300965E-1,3.0126518E-1,0E0,0E0,0E0,2.1103573E-1,1.2991095E-1,0E0,0E0,0E0,0E0,0E0,0E0,0E0,0E0,0E0],"parents":[2147483647,0,0,1,1,2,2,3,3,4,4,5,5,6,6,7,7,8,8,9,9,13,13,14,14,15,15,17,17,22,22,23,23,24,24,28,28,29,29],"right_children":[2,4,6,8,10,12,14,16,18,20,-1,-1,-1,22,24,26,-1,28,-1,-1,-1,-1,30,32,34,-1,-1,-1,36,38,-1,-1,-1,-1,-1,-1,-1,-1,-1],"split_conditions":[7.9344374E-1,1.2442267E0,2.3516947E-1,4.018719E-1,1.0704274E0,4.5035046E-1,1.1088321E0,9.007022E-1,1.3751175E0,7.7972496E-1,-6.825541E-2,-1.7713186E-1,3.757857E-2,1.070845E-1,7.366152E-1,5.7496375E-1,-1.1178797E-1,1.4746068E-1,2.2032926E-2,1.9765088E-1,4.1036922E-2,-4.612901E-2,1.7043015E0,5.6477404E-1,4.58846E-1,2.6284482E-3,1.9449125E-1,-8.733361E-3,1.850107E0,1.8900996E0,-2.4509313E-2,-1.9650893E-1,1.9832013E-2,-1.4470031E-2,1.6851048E-1,-2.4835849E-1,-4.4609018E-2,2.5746444E-1,5.85082E-2],"split_indices":[153,327,306,92,113,206,118,262,136,87,0,0,0,227,94,63,0,358,0,0,0,0,41,173,78,0,0,0,159,487,0,0,0,0,0,0,0,0,0],"split_type":[0,0,0,0,0,0,0,0,0,0,0,0,0,0,0,0,0,0,0,0,0,0,0,0,0,0,0,0,0,0,0,0,0,0,0,0,0,0,0],"sum_hessian":[3.769682E1,1.996784E1,1.772898E1,1.6281145E1,3.6866958E0,2.5619082E0,1.516707E1,4.797464E0,1.1483681E1,2.6179302E0,1.0687656E0,1.4863088E0,1.0755993E0,1.0126958E1,5.0401125E0,2.8724873E0,1.9249767E0,1.0092091E1,1.3915901E0,1.5876824E0,1.0302478E0,1.0205052E0,9.106453E0,2.6571186E0,2.3829937E0,1.1100597E0,1.7624276E0,1.0635673E0,9.0285225E0,8.077249E0,1.0292041E0,1.4874576E0,1.1696609E0,1.0058221E0,1.3771718E0,8.023589E0,1.0049334E0,7.047643E0,1.0296056E0],"tree_param":{"num_deleted":"0","num_feature":"512","num_nodes":"39","size_leaf_vector":"1"}},{"base_weights":[1.4441563E-3,-2.7190924E-1,2.4256875E-1,-3.6215934E-1,1.2602518E-1,-1.0956825E-1,4.676755E-1,1.9803694E-1,-5.0022084E-1,2.3185103E-1,-4.9306592E-1,7.059124E-1,-6.2664147E-3,-7.115854E-2,1.3585843E-1,-6.9134796E-1,-4.9032286E-2,4.6352586E-1,-1.0496332E-1,-1.9557066E-1,-7.5157606E-3,1.1027246E-2,2.4290185E-1,1.2554494E-1,-2.552697E-1,-8.1842506E-1,-2.6789216E-2,3.1438336E-1,-1.3862386E-1,-2.4699941E-2,2.0231998E-1,-1.2675579E-1,2.9079318E-2,-7.227691E-2,-2.6392382E-1,1.5118378E-1,-2.7589751E-3],"categories":[],"categories_nodes":[],"categories_segments":[],"categories_sizes":[],"default_left":[0,0,0,0,0,0,0,0,0,0,0,0,0,0,0,0,0,0,0,0,0,0,0,0,0,0,0,0,0,0,0,0,0,0,0,0,0],"id":14,"left_children":[1,3,5,7,-1,9,11,13,15,17,19,21,23,-1,-1,25,27,29,-1,-1,-1,-1,-1,-1,31,33,-1,35,-1,-1,-1,-1,-1,-1,-1,-1,-1],"loss_changes":[2.362869E0,1.2015883E0,1.5608337E0,1.2902992E0,0E0,1.1927859E0,1.3375897E0,5.2462596E-1,1.0561495E0,8.411049E-1,2.9582298E-1,5.164106E-1,6.2940127E-1,0E0,0E0,6.003971E-1,8.714384E-1,5.197457E-1,0E0,0E0,0E0,0E0,0E0,0E0,2.6102686E-1,4.1116714E-2,0E0,1.9898862E-1,0E0,0E0,0E0,0E0,0E0,0E0,0E0,0E0,0E0],"parents":[2147483647,0,0,1,1,2,2,3,3,5,5,6,6,7,7,8,8,9,9,10,10,11,11,12,12,15,15,16,16,17,17,24,24,25,25,27,27],"right_children":[2,4,6,8,-1,10,12,14,16,18,20,22,24,-1,-1,26,28,30,-1,-1,-1,-1,-1,-1,32,34,-1,36,-1,-1,-1,-1,-1,-1,-1,-1,-1],"split_conditions":[5.5168E-1,1.7180951E0,5.9832263E-1,2.053439E-1,1.2602518E-1,7.685931E-1,1.1521062E0,7.5788707E-1,9.298549E-1,1.0388144E0,1.3221778E0,1.7440358E-1,5.7036275E-1,-7.115854E-2,1.3585843E-1,9.2746913E-1,6.925486E-1,3.8498488E-1,-1.0496332E-1,-1.9557066E-1,-7.5157606E-3,1.1027246E-2,2.4290185E-1,1.2554494E-1,9.6603596E-1,2.0372754E-1,-2.6789216E-2,3.7399364E-1,-1.3862386E-1,-2.4699941E-2,2.0231998E-1,-1.2675579E-1,2.9079318E-2,-7.227691E-2,-2.6392382E-1,1.5118378E-1,-2.7589751E-3],"split_indices":[155,265,327,317,0,423,32,342,447,116,342,493,260,0,0,73,273,43,0,0,0,0,0,0,410,116,0,402,0,0,0,0,0,0,0,0,0],"split_type":[0,0,0,0,0,0,0,0,0,0,0,0,0,0,0,0,0,0,0,0,0,0,0,0,0,0,0,0,0,0,0,0,0,0,0,0,0],"sum_hessian":[3.3848045E1,1.5804003E1,1.8044044E1,1.4402291E1,1.4017109E0,7.2367606E0,1.0807283E1,2.7617688E0,1.1640523E1,4.037604E0,3.199157E0,6.8663287E0,3.9409544E0,1.0454152E0,1.7163537E0,7.8028784E0,3.8376443E0,3.0329263E0,1.0046775E0,2.0951746E0,1.1039823E0,1.1035756E0,5.7627535E0,1.2049385E0,2.7360158E0,6.1461844E0,1.6566942E0,2.168542E0,1.6691024E0,1.0150295E0,2.0178967E0,1.7197183E0,1.0162975E0,1.0631021E0,5.083082E0,1.0159568E0,1.1525851E0],"tree_param":{"num_deleted":"0","num_feature":"512","num_nodes":"37","size_leaf_vector":"1"}},{"base_weights":[6.779921E-4,-3.0581194E-1,1.9732623E-1,-5.452331E-1,1.2820256E-1,3.60336E-1,-2.1186936E-1,-6.472195E-1,2.6549956E-2,4.0880343E-1,-1.0789992E-1,6.086559E-1,6.695044E-2,2.3273319E-1,-4.8069683E-1,-7.376924E-1,-1.3903783E-2,1.729377E-1,-9.4483764E-4,-7.772193E-3,7.107997E-1,-2.8058112E-1,3.076826E-1,-3.9000075E-2,1.4324883E-1,-1.04207955E-2,-1.9344929E-1,-2.4166965E-1,-5.740321E-2,4.434383E-2,2.3730288E-1,-1.6115932E-1,4.0079273E-2,-2.0702694E-2,1.6803376E-1],"categories":[],"categories_nodes":[],"categories_segments":[],"categories_sizes":[],"default_left":[0,0,0,0,0,0,0,0,0,0,0,0,0,0,0,0,0,0,0,0,0,0,0,0,0,0,0,0,0,0,0,0,0,0,0],"id":15,"left_children":[1,3,5,7,9,11,13,15,-1,17,-1,19,21,23,25,27,-1,-1,-1,-1,29,31,33,-1,-1,-1,-1,-1,-1,-1,-1,-1,-1,-1,-1],"loss_changes":[1.9534639E0,1.3863324E0,1.3931645E0,5.972841E-1,8.744494E-1,1.0147424E0,8.5932624E-1,3.635924E-1,0E0,2.6712817E-1,0E0,5.189929E-1,7.359562E-1,3.3111072E-1,2.86748E-1,7.920289E-2,0E0,0E0,0E0,0E0,1.8506074E-1,4.6508926E-1,5.2020514E-1,0E0,0E0,0E0,0E0,0E0,0E0,0E0,0E0,0E0,0E0,0E0,0E0],"parents":[2147483647,0,0,1,1,2,2,3,3,4,4,5,5,6,6,7,7,9,9,11,11,12,12,13,13,14,14,15,15,20,20,21,21,22,22],"right_children":[2,4,6,8,10,12,14,16,-1,18,-1,20,22,24,26,28,-1,-1,-1,-1,30,32,34,-1,-1,-1,-1,-1,-1,-1,-1,-1,-1,-1,-1],"split_conditions":[5.626907E-1,9.717588E-1,1.1746764E0,1.2149873E0,9.78171E-1,7.233699E-1,5.129704E-1,1.8034135E0,2.6549956E-2,6.1404246E-1,-1.0789992E-1,3.1725746E-1,6.479767E-1,4.926474E-1,8.3851445E-1,9.755938E-1,-1.3903783E-2,1.729377E-1,-9.4483764E-4,-7.772193E-3,3.8319486E-1,5.784808E-1,4.0182674E-1,-3.9000075E-2,1.4324883E-1,-1.04207955E-2,-1.9344929E-1,-2.4166965E-1,-5.740321E-2,4.434383E-2,2.3730288E-1,-1.6115932E-1,4.0079273E-2,-2.0702694E-2,1.6803376E-1],"split_indices":[70,0,288,155,262,174,245,141,0,241,0,225,14,94,267,361,0,0,0,0,120,124,206,0,0,0,0,0,0,0,0,0,0,0,0],"split_type":[0,0,0,0,0,0,0,0,0,0,0,0,0,0,0,0,0,0,0,0,0,0,0,0,0,0,0,0,0,0,0,0,0,0,0],"sum_hessian":[3.041027E1,1.1668689E1,1.8741583E1,7.355063E0,4.3136263E0,1.3487872E1,5.2537107E0,6.317163E0,1.0378996E0,2.8414254E0,1.4722006E0,6.7229824E0,6.7648892E0,2.0302427E0,3.223468E0,5.292567E0,1.0245965E0,1.7357016E0,1.1057239E0,1.0356183E0,5.687364E0,2.7006211E0,4.064268E0,1.0069042E0,1.0233383E0,1.1931767E0,2.0302913E0,4.285699E0,1.006868E0,1.0637578E0,4.6236067E0,1.4840902E0,1.2165309E0,1.9223058E0,2.1419623E0],"tree_param":{"num_deleted":"0","num_feature":"512","num_nodes":"35","size_leaf_vector":"1"}},{"base_weights":[-1.4531998E-4,-1.2943481E-1,4.2478994E-1,-2.8647837E-1,3.3041677E-1,-2.827897E-2,6.541132E-1,-6.216269E-1,-8.342462E-2,-6.261615E-2,5.543773E-1,2.2635244E-1,4.1321393E-2,-2.401601E-2,-2.1375763E-1,3.81384E-1,-2.7264568E-1,2.0311983E-2,2.0487136E-1,-7.4012303E-3,1.7683986E-1,-4.7827122E-1,1.16732724E-1,2.0433433E-2,-1.7980908E-1,1.3575988E-1,-6.61078E-2],"categories":[],"categories_nodes":[],"categories_segments":[],"categories_sizes":[],"default_left":[0,0,0,0,0,0,0,0,0,0,0,0,0,0,0,0,0,0,0,0,0,0,0,0,0,0,0],"id":16,"left_children":[1,3,5,7,9,-1,11,13,15,-1,17,-1,-1,-1,-1,19,21,-1,-1,-1,-1,23,25,-1,-1,-1,-1],"loss_changes":[1.6338218E0,1.741215E0,8.874326E-1,1.1412195E0,8.726225E-1,0E0,1.5204716E-1,2.609408E-1,1.1657549E0,0E0,2.4789977E-1,0E0,0E0,0E0,0E0,3.44872E-1,7.894501E-1,0E0,0E0,0E0,0E0,4.5052743E-1,5.4914165E-1,0E0,0E0,0E0,0E0],"parents":[2147483647,0,0,1,1,2,2,3,3,4,4,6,6,7,7,8,8,10,10,15,15,16,16,21,21,22,22],"right_children":[2,4,6,8,10,-1,12,14,16,-1,18,-1,-1,-1,-1,20,22,-1,-1,-1,-1,24,26,-1,-1,-1,-1],"split_conditions":[1.3107291E0,1.1275686E0,2.3469844E-1,4.9255705E-1,6.3147855E-1,-2.827897E-2,1.085389E0,3.7611935E-1,5.055219E-1,-6.261615E-2,6.82636E-1,2.2635244E-1,4.1321393E-2,-2.401601E-2,-2.1375763E-1,6.25151E-1,9.244304E-1,2.0311983E-2,2.0487136E-1,-7.4012303E-3,1.7683986E-1,2.792461E-1,9.8390377E-1,2.0433433E-2,-1.7980908E-1,1.3575988E-1,-6.61078E-2],"split_indices":[473,361,194,80,481,0,441,490,83,0,127,0,0,0,0,314,122,0,0,0,0,468,260,0,0,0,0],"split_type":[0,0,0,0,0,0,0,0,0,0,0,0,0,0,0,0,0,0,0,0,0,0,0,0,0,0,0],"sum_hessian":[2.7737694E1,2.1800226E1,5.937468E0,1.6531563E1,5.268662E0,1.9998753E0,3.9375927E0,5.4593277E0,1.1072236E1,1.5662639E0,3.7023983E0,2.9105537E0,1.027039E0,1.0549028E0,4.404425E0,2.909558E0,8.162678E0,1.0924821E0,2.6099162E0,1.284467E0,1.6250911E0,5.192365E0,2.9703126E0,1.0213664E0,4.170999E0,1.3164485E0,1.6538643E0],"tree_param":{"num_deleted":"0","num_feature":"512","num_nodes":"27","size_leaf_vector":"1"}},{"base_weights":[9.827436E-3,-2.9281178E-1,1.8435767E-1,3.572057E-2,-5.3578985E-1,-3.1463167E-1,2.9856792E-1,-2.4657696E-1,1.0757868E-1,1.6717797E-2,-2.0252086E-1,-1.6285619E-1,2.4833465E-2,-3.732957E-3,4.815551E-1,2.771041E-2,-1.2880546E-1,2.9917422E-1,-3.251732E-1,5.782784E-1,-3.3656098E-2,-3.4304634E-2,1.451478E-1,2.8634308E-2,-1.5690865E-1,1.9836275E-1,2.3508345E-1,-4.9695708E-2,1.3690732E-1],"categories":[],"categories_nodes":[],"categories_segments":[],"categories_sizes":[],"default_left":[0,0,0,0,0,0,0,0,0,0,0,0,0,0,0,0,0,0,0,0,0,0,0,0,0,0,0,0,0],"id":17,"left_children":[1,3,5,7,9,11,13,15,-1,-1,-1,-1,-1,17,19,-1,-1,21,23,25,-1,-1,-1,-1,-1,27,-1,-1,-1],"loss_changes":[1.4484098E0,8.207829E-1,1.0831313E0,5.630248E-1,5.1837134E-1,3.8231108E-1,8.1150997E-1,2.4847057E-1,0E0,0E0,0E0,0E0,0E0,7.313058E-1,5.889654E-1,0E0,0E0,3.5108283E-1,3.5271624E-1,4.694147E-1,0E0,0E0,0E0,0E0,0E0,4.6526748E-1,0E0,0E0,0E0],"parents":[2147483647,0,0,1,1,2,2,3,3,4,4,5,5,6,6,7,7,13,13,14,14,17,17,18,18,19,19,25,25],"right_children":[2,4,6,8,10,12,14,16,-1,-1,-1,-1,-1,18,20,-1,-1,22,24,26,-1,-1,-1,-1,-1,28,-1,-1,-1],"split_conditions":[4.5930707E-1,8.3014977E-1,1.8812077E-1,7.678231E-1,4.0877873E-1,5.750826E-1,9.5928097E-1,3.8632694E-1,1.0757868E-1,1.6717797E-2,-2.0252086E-1,-1.6285619E-1,2.4833465E-2,6.899063E-1,2.0421917E0,2.771041E-2,-1.2880546E-1,5.4279286E-1,7.0552367E-1,7.4713945E-1,-3.3656098E-2,-3.4304634E-2,1.451478E-1,2.8634308E-2,-1.5690865E-1,5.991889E-1,2.3508345E-1,-4.9695708E-2,1.3690732E-1],"split_indices":[306,142,227,120,498,328,343,116,0,0,0,0,0,177,183,0,0,110,434,60,0,0,0,0,0,199,0,0,0],"split_type":[0,0,0,0,0,0,0,0,0,0,0,0,0,0,0,0,0,0,0,0,0,0,0,0,0,0,0,0,0],"sum_hessian":[2.5399767E1,9.0423765E0,1.6357391E1,4.207021E0,4.8353553E0,2.7197673E0,1.3637624E1,2.3706298E0,1.8363914E0,1.0358855E0,3.7994695E0,1.4951572E0,1.22461E0,5.511705E0,8.125918E0,1.0037907E0,1.366839E0,2.8733196E0,2.638385E0,7.0100017E0,1.1159173E0,1.0045E0,1.8688196E0,1.0096215E0,1.6287637E0,3.1492264E0,3.860775E0,1.4546826E0,1.694544E0],"tree_param":{"num_deleted":"0","num_feature":"512","num_nodes":"29","size_leaf_vector":"1"}},{"base_weights":[6.559301E-3,1.5643075E-1,-2.9170483E-1,-1.7895244E-1,3.212105E-1,-4.4284335E-1,6.3168615E-2,-3.5905266E-1,1.02011755E-1,4.24887E-1,-5.8314964E-2,2.4355862E-2,-5.559194E-1,-5.789899E-1,5.9046436E-2,5.66502E-1,-4.227194E-2,-3.7550755E-2,-2.0040727E-1,-5.683E-2,-2.000332E-1,5.4518655E-3,7.2261035E-1,-7.345321E-2,5.4471165E-2,2.3548764E-1,6.213559E-2],"categories":[],"categories_nodes":[],"categories_segments":[],"categories_sizes":[],"default_left":[0,0,0,0,0,0,0,0,0,0,0,0,0,0,0,0,0,0,0,0,0,0,0,0,0,0,0],"id":18,"left_children":[1,3,5,7,9,11,-1,13,-1,15,-1,-1,17,19,-1,21,23,-1,-1,-1,-1,-1,25,-1,-1,-1,-1],"loss_changes":[1.1345197E0,9.894383E-1,7.38163E-1,7.014188E-1,7.061775E-1,4.5119405E-1,0E0,7.3596007E-1,0E0,6.8726754E-1,0E0,0E0,1.9471872E-1,7.029891E-3,0E0,6.514182E-1,1.9241296E-1,0E0,0E0,0E0,0E0,0E0,3.0816793E-2,0E0,0E0,0E0,0E0],"parents":[2147483647,0,0,1,1,2,2,3,3,4,4,5,5,7,7,9,9,12,12,13,13,15,15,16,16,22,22],"right_children":[2,4,6,8,10,12,-1,14,-1,16,-1,-1,18,20,-1,22,24,-1,-1,-1,-1,-1,26,-1,-1,-1,-1],"split_conditions":[1.0747114E0,4.1980243E-1,1.4916098E0,1.1396276E0,1.7521393E0,3.593479E-1,6.3168615E-2,1.3090296E0,1.02011755E-1,1.6789498E0,-5.8314964E-2,2.4355862E-2,6.5587854E-1,6.481976E-1,5.9046436E-2,3.6839753E-1,8.0675095E-1,-3.7550755E-2,-2.0040727E-1,-5.683E-2,-2.000332E-1,5.4518655E-3,1.2621616E0,-7.345321E-2,5.4471165E-2,2.3548764E-1,6.213559E-2],"split_indices":[461,225,399,361,276,258,0,141,0,40,0,0,246,468,0,122,133,0,0,0,0,0,64,0,0,0,0],"split_type":[0,0,0,0,0,0,0,0,0,0,0,0,0,0,0,0,0,0,0,0,0,0,0,0,0,0,0],"sum_hessian":[2.3359217E1,1.5863615E1,7.4956026E0,5.1979656E0,1.0665648E1,5.8527474E0,1.6428554E0,4.0876455E0,1.1103202E0,9.026509E0,1.6391399E0,1.0888237E0,4.7639236E0,2.89903E0,1.1886156E0,6.763548E0,2.262961E0,1.4208809E0,3.3430426E0,1.1139115E0,1.7851185E0,1.7462555E0,5.0172925E0,1.1386695E0,1.1242915E0,4.0095963E0,1.0076963E0],"tree_param":{"num_deleted":"0","num_feature":"512","num_nodes":"27","size_leaf_vector":"1"}},{"base_weights":[4.811281E-3,2.2545755E-1,-1.967895E-1,-1.3247213E-1,4.3479374E-1,-3.4811765E-1,2.0617296E-1,-1.3260144E-1,1.455853E-1,-2.7400998E-2,5.917754E-1,-5.4637384E-1,5.2894864E-2,1.389251E-1,-4.7834914E-2,1.1295089E-1,-4.9731616E-2,2.0216502E-1,6.3070446E-2,-6.468548E-1,-3.2176801E-3,9.0189755E-2,-9.724431E-2,-2.1700509E-1,-4.8784345E-2],"categories":[],"categories_nodes":[],"categories_segments":[],"categories_sizes":[],"default_left":[0,0,0,0,0,0,0,0,0,0,0,0,0,0,0,0,0,0,0,0,0,0,0,0,0],"id":19,"left_children":[1,3,5,7,9,11,13,-1,15,-1,17,19,21,-1,-1,-1,-1,-1,-1,23,-1,-1,-1,-1,-1],"loss_changes":[1.0526834E0,9.0343344E-1,8.2663965E-1,4.8886207E-1,6.6163623E-1,7.739532E-1,4.5028812E-1,0E0,3.0330676E-1,0E0,4.0012598E-2,3.3533466E-1,4.7220647E-1,0E0,0E0,0E0,0E0,0E0,0E0,8.010173E-2,0E0,0E0,0E0,0E0,0E0],"parents":[2147483647,0,0,1,1,2,2,3,3,4,4,5,5,6,6,8,8,10,10,11,11,12,12,19,19],"right_children":[2,4,6,8,10,12,14,-1,16,-1,18,20,22,-1,-1,-1,-1,-1,-1,24,-1,-1,-1,-1,-1],"split_conditions":[7.227011E-1,5.6966263E-1,1.267246E0,5.905951E-1,4.315216E-1,1.2080007E0,1.0027268E0,-1.3260144E-1,5.3929406E-1,-2.7400998E-2,1.110647E0,1.193894E0,1.2159283E0,1.389251E-1,-4.7834914E-2,1.1295089E-1,-4.9731616E-2,2.0216502E-1,6.3070446E-2,1.3933905E0,-3.2176801E-3,9.0189755E-2,-9.724431E-2,-2.1700509E-1,-4.8784345E-2],"split_indices":[91,412,95,60,265,433,436,0,499,0,334,73,64,0,0,0,0,0,0,187,0,0,0,0,0],"split_type":[0,0,0,0,0,0,0,0,0,0,0,0,0,0,0,0,0,0,0,0,0,0,0,0,0],"sum_hessian":[2.1667715E1,1.0288696E1,1.137902E1,3.932302E0,6.3563943E0,8.371353E0,3.0076663E0,1.5818144E0,2.3504875E0,1.55682E0,4.7995744E0,5.359292E0,3.0120614E0,1.6098896E0,1.3977767E0,1.2294425E0,1.1210451E0,3.3190866E0,1.4804878E0,4.337938E0,1.0213542E0,1.9400189E0,1.0720425E0,3.319735E0,1.0182027E0],"tree_param":{"num_deleted":"0","num_feature":"512","num_nodes":"25","size_leaf_vector":"1"}},{"base_weights":[2.57456E-3,1.5126343E-1,-2.7931538E-1,-2.1004693E-1,3.078683E-1,-4.0637076E-1,8.275632E-2,-4.377973E-1,9.44004E-2,4.1545796E-1,-4.0908135E-2,-5.21522E-1,1.4013727E-2,-1.3571252E-2,-1.7562997E-1,1.463899E-1,1.8957394E-1,-3.2131016E-2,-1.901058E-1,3.741532E-1,-6.301312E-2,1.5502913E-1,3.1756114E-3],"categories":[],"categories_nodes":[],"categories_segments":[],"categories_sizes":[],"default_left":[0,0,0,0,0,0,0,0,0,0,0,0,0,0,0,0,0,0,0,0,0,0,0],"id":20,"left_children":[1,3,5,7,9,11,-1,13,-1,15,-1,17,-1,-1,-1,19,-1,-1,-1,21,-1,-1,-1],"loss_changes":[9.298807E-1,8.8586086E-1,6.527237E-1,7.3323035E-1,5.5993944E-1,3.7086034E-1,0E0,1.9913071E-1,0E0,4.1560495E-1,0E0,1.8210053E-1,0E0,0E0,0E0,5.00002E-1,0E0,0E0,0E0,1.7738283E-1,0E0,0E0,0E0],"parents":[2147483647,0,0,1,1,2,2,3,3,4,4,5,5,7,7,9,9,11,11,15,15,19,19],"right_children":[2,4,6,8,10,12,-1,14,-1,16,-1,18,-1,-1,-1,20,-1,-1,-1,22,-1,-1,-1],"split_conditions":[9.159396E-1,4.324084E-1,1.4251394E0,1.0154827E0,1.7220937E0,1.2887088E0,8.275632E-2,7.084368E-1,9.44004E-2,6.543093E-1,-4.0908135E-2,4.8435894E-1,1.4013727E-2,-1.3571252E-2,-1.7562997E-1,8.397585E-1,1.8957394E-1,-3.2131016E-2,-1.901058E-1,8.4571075E-1,-6.301312E-2,1.5502913E-1,3.1756114E-3],"split_indices":[71,290,225,122,201,399,0,169,0,155,0,140,0,0,0,229,0,0,0,142,0,0,0],"split_type":[0,0,0,0,0,0,0,0,0,0,0,0,0,0,0,0,0,0,0,0,0,0,0],"sum_hessian":[2.0177473E1,1.3513097E1,6.6643767E0,3.9828424E0,9.530254E0,5.641333E0,1.0230435E0,2.892857E0,1.0899855E0,7.724251E0,1.8060036E0,4.377691E0,1.2636423E0,1.1476638E0,1.7451931E0,4.1909404E0,3.5333104E0,1.3488609E0,3.02883E0,2.5266695E0,1.6642708E0,1.5121542E0,1.0145154E0],"tree_param":{"num_deleted":"0","num_feature":"512","num_nodes":"23","size_leaf_vector":"1"}},{"base_weights":[3.191886E-3,-1.5654309E-1,2.5939056E-1,-3.503883E-1,1.855528E-1,4.580944E-1,-8.0526374E-2,-1.0316808E-2,-5.4281473E-1,-7.072998E-2,4.30073E-1,-4.6108933E-3,1.7961545E-1,5.8717486E-2,-1.0237304E-1,-7.522203E-2,8.093031E-2,-2.0302914E-1,-5.7045285E-2,1.1858896E-2,1.7191017E-1],"categories":[],"categories_nodes":[],"categories_segments":[],"categories_sizes":[],"default_left":[0,0,0,0,0,0,0,0,0,0,0,0,0,0,0,0,0,0,0,0,0],"id":21,"left_children":[1,3,5,7,9,11,13,15,17,-1,19,-1,-1,-1,-1,-1,-1,-1,-1,-1,-1],"loss_changes":[8.530105E-1,9.172411E-1,5.7724214E-1,5.538621E-1,6.47618E-1,3.5530722E-1,3.406125E-1,3.4432566E-1,1.283195E-1,0E0,1.8443197E-1,0E0,0E0,0E0,0E0,0E0,0E0,0E0,0E0,0E0,0E0],"parents":[2147483647,0,0,1,1,2,2,3,3,4,4,5,5,6,6,7,7,8,8,10,10],"right_children":[2,4,6,8,10,12,14,16,18,-1,20,-1,-1,-1,-1,-1,-1,-1,-1,-1,-1],"split_conditions":[1.0293746E0,8.934967E-1,1.3558149E0,5.447219E-1,6.2857586E-1,2.0739636E-1,7.344446E-1,6.361828E-1,7.552548E-1,-7.072998E-2,6.327417E-1,-4.6108933E-3,1.7961545E-1,5.8717486E-2,-1.0237304E-1,-7.522203E-2,8.093031E-2,-2.0302914E-1,-5.7045285E-2,1.1858896E-2,1.7191017E-1],"split_indices":[274,270,488,50,122,155,317,104,189,0,327,0,0,0,0,0,0,0,0,0,0],"split_type":[0,0,0,0,0,0,0,0,0,0,0,0,0,0,0,0,0,0,0,0,0],"sum_hessian":[1.88516E1,1.1851435E1,7.0001655E0,7.549402E0,4.3020325E0,4.198311E0,2.8018548E0,3.1088345E0,4.4405675E0,1.5930074E0,2.709025E0,1.1653649E0,3.0329459E0,1.4814345E0,1.3204204E0,1.7292358E0,1.3795986E0,2.552188E0,1.8883797E0,1.0679861E0,1.6410389E0],"tree_param":{"num_deleted":"0","num_feature":"512","num_nodes":"21","size_leaf_vector":"1"}},{"base_weights":[2.208537E-3,1.602676E-1,-2.5147745E-1,-8.437724E-2,3.2542607E-1,6.2385504E-3,-5.2361053E-1,-3.152953E-1,7.308074E-2,4.4455352E-1,-4.3606963E-2,2.3320271E-1,-9.366639E-2,-1.8105362E-1,-4.685865E-2,-1.4816108E-1,1.9167803E-2,5.63525E-1,-2.0259785E-2,-2.6159637E-2,1.3671532E-1,3.1081665E-2,1.9563495E-1],"categories":[],"categories_nodes":[],"categories_segments":[],"categories_sizes":[],"default_left":[0,0,0,0,0,0,0,0,0,0,0,0,0,0,0,0,0,0,0,0,0,0,0],"id":22,"left_children":[1,3,5,7,9,11,13,15,-1,17,-1,19,-1,-1,-1,-1,-1,21,-1,-1,-1,-1,-1],"loss_changes":[7.887878E-1,5.1683533E-1,5.3311634E-1,5.066384E-1,4.8167408E-1,4.2469895E-1,1.3957381E-2,2.865875E-1,0E0,4.1462934E-1,0E0,2.8320897E-1,0E0,0E0,0E0,0E0,0E0,1.4116454E-1,0E0,0E0,0E0,0E0,0E0],"parents":[2147483647,0,0,1,1,2,2,3,3,4,4,5,5,6,6,7,7,9,9,11,11,17,17],"right_children":[2,4,6,8,10,12,14,16,-1,18,-1,20,-1,-1,-1,-1,-1,22,-1,-1,-1,-1,-1],"split_conditions":[8.155279E-1,4.9555004E-1,8.9778644E-1,8.4769017E-1,1.8891115E0,1.1088321E0,5.195229E-1,9.383484E-1,7.308074E-2,1.257115E0,-4.3606963E-2,7.801839E-1,-9.366639E-2,-1.8105362E-1,-4.685865E-2,-1.4816108E-1,1.9167803E-2,2.7242404E-1,-2.0259785E-2,-2.6159637E-2,1.3671532E-1,3.1081665E-2,1.9563495E-1],"split_indices":[305,28,324,327,259,118,306,362,0,461,0,502,0,0,0,0,0,225,0,0,0,0,0],"split_type":[0,0,0,0,0,0,0,0,0,0,0,0,0,0,0,0,0,0,0,0,0,0,0],"sum_hessian":[1.7666662E1,1.1111737E1,6.5549245E0,4.6753616E0,6.4363756E0,3.8684719E0,2.6864526E0,2.7663524E0,1.9090095E0,5.1810656E0,1.2553097E0,2.4150202E0,1.4534515E0,1.67878E0,1.0076728E0,1.6750581E0,1.0912943E0,4.122782E0,1.0582836E0,1.2390385E0,1.1759818E0,1.0162796E0,3.1065028E0],"tree_param":{"num_deleted":"0","num_feature":"512","num_nodes":"23","size_leaf_vector":"1"}},{"base_weights":[-3.4761908E-3,-2.0391563E-1,1.7749943E-1,-3.3914012E-1,7.128382E-2,3.6708263E-1,-7.3340364E-2,-4.6023962E-1,6.0720645E-2,-8.784416E-3,5.440211E-1,1.1866931E-1,-9.375884E-2,-5.637927E-1,-5.4280832E-3,1.8922119E-1,4.31204E-2,9.9213995E-2,-4.897328E-2,-1.8785787E-1,-4.761995E-2],"categories":[],"categories_nodes":[],"categories_segments":[],"categories_sizes":[],"default_left":[0,0,0,0,0,0,0,0,0,0,0,0,0,0,0,0,0,0,0,0,0],"id":23,"left_children":[1,3,5,7,-1,9,11,13,-1,-1,15,17,-1,19,-1,-1,-1,-1,-1,-1,-1],"loss_changes":[6.744784E-1,6.068479E-1,4.920822E-1,5.6269187E-1,0E0,4.183135E-1,2.6874158E-1,2.7168775E-1,0E0,0E0,4.8805118E-2,2.645695E-1,0E0,2.5850177E-2,0E0,0E0,0E0,0E0,0E0,0E0,0E0],"parents":[2147483647,0,0,1,1,2,2,3,3,5,5,6,6,7,7,10,10,11,11,13,13],"right_children":[2,4,6,8,-1,10,12,14,-1,-1,16,18,-1,20,-1,-1,-1,-1,-1,-1,-1],"split_conditions":[7.0147365E-1,1.6013315E0,1.1407828E0,2.1837974E0,7.128382E-2,5.3364116E-1,1.3352321E0,1.1787868E0,6.0720645E-2,-8.784416E-3,9.8640615E-1,1.2494786E0,-9.375884E-2,8.8968235E-1,-5.4280832E-3,1.8922119E-1,4.31204E-2,9.9213995E-2,-4.897328E-2,-1.8785787E-1,-4.761995E-2],"split_indices":[447,343,487,141,0,73,432,337,0,0,253,183,0,11,0,0,0,0,0,0,0],"split_type":[0,0,0,0,0,0,0,0,0,0,0,0,0,0,0,0,0,0,0,0,0],"sum_hessian":[1.6595856E1,7.8143353E0,8.78152E0,6.159725E0,1.6546104E0,4.737518E0,4.044002E0,5.156714E0,1.0030112E0,1.7196966E0,3.0178213E0,2.5227365E0,1.5212654E0,3.9552455E0,1.2014683E0,2.0072627E0,1.0105585E0,1.3409936E0,1.181743E0,2.954215E0,1.0010303E0],"tree_param":{"num_deleted":"0","num_feature":"512","num_nodes":"21","size_leaf_vector":"1"}},{"base_weights":[1.4190278E-3,-1.9628116E-1,1.858041E-1,-3.8955978E-1,5.3709343E-2,-8.5262634E-2,2.810643E-1,-5.1261514E-1,4.479226E-3,2.984565E-1,-8.1341766E-2,4.7678027E-1,-3.8637205E-3,-3.6111213E-2,-1.833008E-1,1.3964559E-1,-5.447287E-3,2.832152E-2,1.8160136E-1,-7.3817976E-2,1.7755723E-1,-9.702681E-3,8.943085E-2],"categories":[],"categories_nodes":[],"categories_segments":[],"categories_sizes":[],"default_left":[0,0,0,0,0,0,0,0,0,0,0,0,0,0,0,0,0,0,0,0,0,0,0],"id":24,"left_children":[1,3,5,7,9,-1,11,13,-1,15,-1,17,19,-1,-1,-1,-1,-1,-1,-1,21,-1,-1],"loss_changes":[6.459525E-1,4.3427277E-1,4.9022523E-1,2.538308E-1,4.4736424E-1,0E0,4.548319E-1,7.3892236E-2,0E0,1.7263433E-1,0E0,1.7996347E-1,2.3261575E-1,0E0,0E0,0E0,0E0,0E0,0E0,0E0,8.653882E-2,0E0,0E0],"parents":[2147483647,0,0,1,1,2,2,3,3,4,4,6,6,7,7,9,9,11,11,12,12,20,20],"right_children":[2,4,6,8,10,-1,12,14,-1,16,-1,18,20,-1,-1,-1,-1,-1,-1,-1,22,-1,-1],"split_conditions":[8.0604506E-1,8.7341917E-1,1.6793236E-1,1.1034837E0,6.404653E-1,-8.5262634E-2,9.8371243E-1,4.6738264E-1,4.479226E-3,6.371729E-1,-8.1341766E-2,5.023898E-1,6.013311E-1,-3.6111213E-2,-1.833008E-1,1.3964559E-1,-5.447287E-3,2.832152E-2,1.8160136E-1,-7.3817976E-2,2.0902342E-1,-9.702681E-3,8.943085E-2],"split_indices":[120,383,165,407,386,0,32,317,0,273,0,170,227,0,0,0,0,0,0,0,382,0,0],"split_type":[0,0,0,0,0,0,0,0,0,0,0,0,0,0,0,0,0,0,0,0,0,0,0],"sum_hessian":[1.57197E1,7.5548105E0,8.164889E0,3.9458237E0,3.6089869E0,1.0416918E0,7.1231976E0,2.8204632E0,1.1253606E0,2.1045916E0,1.5043954E0,3.823508E0,3.2996893E0,1.0114641E0,1.808999E0,1.0699468E0,1.0346448E0,1.39843E0,2.4250782E0,1.2605577E0,2.0391316E0,1.0107933E0,1.0283384E0],"tree_param":{"num_deleted":"0","num_feature":"512","num_nodes":"23","size_leaf_vector":"1"}},{"base_weights":[-2.7764722E-4,1.6843635E-1,-2.2167657E-1,3.6705464E-1,-1.765751E-1,-3.8172483E-1,5.71236E-2,-1.2489798E-2,5.272358E-1,-1.1106438E-1,5.156085E-2,1.9749656E-2,-4.9501067E-1,4.774565E-2,1.8115905E-1,-1.7956078E-1,-3.7398834E-2],"categories":[],"categories_nodes":[],"categories_segments":[],"categories_sizes":[],"default_left":[0,0,0,0,0,0,0,0,0,0,0,0,0,0,0,0,0],"id":25,"left_children":[1,3,5,7,9,11,-1,-1,13,-1,-1,-1,15,-1,-1,-1,-1],"loss_changes":[6.2987715E-1,7.2067034E-1,5.5363417E-1,4.4085318E-1,3.4512505E-1,3.1576252E-1,0E0,0E0,3.5622716E-2,0E0,0E0,0E0,1.007663E-1,0E0,0E0,0E0,0E0],"parents":[2147483647,0,0,1,1,2,2,3,3,4,4,5,5,8,8,12,12],"right_children":[2,4,6,8,10,12,-1,-1,14,-1,-1,-1,16,-1,-1,-1,-1],"split_conditions":[8.1095344E-1,1.1088321E0,1.3396071E0,4.3917564E-1,9.5183074E-1,2.8489944E-1,5.71236E-2,-1.2489798E-2,7.577497E-1,-1.1106438E-1,5.156085E-2,1.9749656E-2,9.872437E-1,4.774565E-2,1.8115905E-1,-1.7956078E-1,-3.7398834E-2],"split_indices":[498,118,209,338,410,409,0,0,435,0,0,0,322,0,0,0,0],"split_type":[0,0,0,0,0,0,0,0,0,0,0,0,0,0,0,0,0],"sum_hessian":[1.4863174E1,8.57099E0,6.292186E0,5.3989797E0,3.1720092E0,4.585095E0,1.7070909E0,1.7286305E0,3.6703494E0,1.9987663E0,1.1732429E0,1.0107645E0,3.5743303E0,1.1626195E0,2.50773E0,2.311922E0,1.2624085E0],"tree_param":{"num_deleted":"0","num_feature":"512","num_nodes":"17","size_leaf_vector":"1"}},{"base_weights":[7.714001E-4,-2.0384686E-1,1.7193538E-1,9.997015E-2,-3.521832E-1,3.5130253E-1,-6.570656E-2,-4.0310774E-2,8.6097516E-2,-4.7715706E-1,1.9940484E-2,-1.0666385E-2,1.6676313E-1,-2.8442317E-1,6.3638665E-2,-1.712978E-1,-3.3069063E-2,-1.12214066E-1,-1.5879063E-2],"categories":[],"categories_nodes":[],"categories_segments":[],"categories_sizes":[],"default_left":[0,0,0,0,0,0,0,0,0,0,0,0,0,0,0,0,0,0,0],"id":26,"left_children":[1,3,5,7,9,11,13,-1,-1,15,-1,-1,-1,17,-1,-1,-1,-1,-1],"loss_changes":[5.634667E-1,3.655389E-1,3.9638844E-1,1.7808679E-1,3.009681E-1,4.272167E-1,3.4043697E-1,0E0,0E0,7.772356E-2,0E0,0E0,0E0,4.257448E-2,0E0,0E0,0E0,0E0,0E0],"parents":[2147483647,0,0,1,1,2,2,3,3,4,4,5,5,6,6,9,9,13,13],"right_children":[2,4,6,8,10,12,14,-1,-1,16,-1,-1,-1,18,-1,-1,-1,-1,-1],"split_conditions":[5.317224E-1,3.7701565E-1,1.1175902E0,7.403593E-1,1.257961E0,5.179936E-1,7.6979923E-1,-4.0310774E-2,8.6097516E-2,1.2791934E0,1.9940484E-2,-1.0666385E-2,1.6676313E-1,9.784539E-1,6.3638665E-2,-1.712978E-1,-3.3069063E-2,-1.12214066E-1,-1.5879063E-2],"split_indices":[155,38,474,211,15,327,170,0,0,343,0,0,0,80,0,0,0,0,0],"split_type":[0,0,0,0,0,0,0,0,0,0,0,0,0,0,0,0,0,0,0],"sum_hessian":[1.4087631E1,6.329762E0,7.7578692E0,2.1835508E0,4.146211E0,4.1484337E0,3.6094356E0,1.0941294E0,1.0894214E0,3.0854187E0,1.0607926E0,1.7207124E0,2.4277213E0,2.006318E0,1.6031173E0,2.014177E0,1.0712416E0,1.0024226E0,1.0038955E0],"tree_param":{"num_deleted":"0","num_feature":"512","num_nodes":"19","size_leaf_vector":"1"}},{"base_weights":[-2.7075866E-3,2.4103391E-1,-1.3527767E-1,-2.8692951E-2,4.1161758E-1,-3.3801556E-1,8.400813E-2,1.5408099E-1,2.2947581E-2,1.4055928E-2,-1.5604964E-1,-9.367728E-2,9.5425405E-2,2.5176663E-2,-8.708207E-2],"categories":[],"categories_nodes":[],"categories_segments":[],"categories_sizes":[],"default_left":[0,0,0,0,0,0,0,0,0,0,0,0,0,0,0],"id":27,"left_children":[1,3,5,-1,7,9,11,-1,-1,-1,-1,13,-1,-1,-1],"loss_changes":[4.982303E-1,3.5156143E-1,4.7181392E-1,0E0,9.0468645E-2,4.0164083E-1,2.623954E-1,0E0,0E0,0E0,0E0,1.62333E-1,0E0,0E0,0E0],"parents":[2147483647,0,0,1,1,2,2,4,4,5,5,6,6,11,11],"right_children":[2,4,6,-1,8,10,12,-1,-1,-1,-1,14,-1,-1,-1],"split_conditions":[4.6272987E-1,5.4918516E-1,7.559809E-1,-2.8692951E-2,8.737374E-1,5.680989E-1,8.966505E-1,1.5408099E-1,2.2947581E-2,1.4055928E-2,-1.5604964E-1,8.2204235E-1,9.5425405E-2,2.5176663E-2,-8.708207E-2],"split_indices":[174,70,306,0,453,83,298,0,0,0,0,472,0,0,0],"split_type":[0,0,0,0,0,0,0,0,0,0,0,0,0,0,0],"sum_hessian":[1.3409874E1,4.4359097E0,8.973964E0,1.639461E0,2.796449E0,4.381586E0,4.592378E0,1.7356769E0,1.0607721E0,1.6461582E0,2.7354279E0,2.9516258E0,1.6407522E0,1.8518455E0,1.0997803E0],"tree_param":{"num_deleted":"0","num_feature":"512","num_nodes":"15","size_leaf_vector":"1"}},{"base_weights":[5.6184304E-4,-1.17048934E-1,2.6830396E-1,-4.0909714E-1,3.0113092E-2,4.22112E-1,-2.7295506E-2,-3.0286564E-2,-1.4895688E-1,2.4725585E-1,-1.532122E-1,3.1028146E-2,1.5543646E-1,1.2885779E-1,-1.4871149E-2,5.017021E-2,-1.105937E-1,7.203639E-2,-4.0383417E-2],"categories":[],"categories_nodes":[],"categories_segments":[],"categories_sizes":[],"default_left":[0,0,0,0,0,0,0,0,0,0,0,0,0,0,0,0,0,0,0],"id":28,"left_children":[1,3,5,7,9,11,-1,-1,-1,13,15,-1,-1,-1,-1,17,-1,-1,-1],"loss_changes":[4.672508E-1,4.5555484E-1,2.8863418E-1,4.480946E-2,3.4794322E-1,4.885161E-2,0E0,0E0,0E0,2.34899E-1,2.3059472E-1,0E0,0E0,0E0,0E0,1.5061642E-1,0E0,0E0,0E0],"parents":[2147483647,0,0,1,1,2,2,3,3,4,4,5,5,9,9,10,10,15,15],"right_children":[2,4,6,8,10,12,-1,-1,-1,14,16,-1,-1,-1,-1,18,-1,-1,-1],"split_conditions":[9.83274E-1,4.9255705E-1,1.2682904E0,4.8844185E-1,7.227011E-1,5.311722E-1,-2.7295506E-2,-3.0286564E-2,-1.4895688E-1,4.9676728E-1,8.6418027E-1,3.1028146E-2,1.5543646E-1,1.2885779E-1,-1.4871149E-2,9.544523E-1,-1.105937E-1,7.203639E-2,-4.0383417E-2],"split_indices":[361,80,245,217,91,477,0,0,0,388,401,0,0,0,0,207,0,0,0],"split_type":[0,0,0,0,0,0,0,0,0,0,0,0,0,0,0,0,0,0,0],"sum_hessian":[1.2841061E1,9.312985E0,3.5280752E0,2.5240366E0,6.788949E0,2.3480463E0,1.1800289E0,1.0340755E0,1.489961E0,2.948189E0,3.8407598E0,1.0245413E0,1.3235049E0,1.5495847E0,1.3986043E0,2.3702333E0,1.4705265E0,1.02109E0,1.3491434E0],"tree_param":{"num_deleted":"0","num_feature":"512","num_nodes":"19","size_leaf_vector":"1"}},{"base_weights":[1.8880669E-3,1.2262856E-1,-2.548527E-1,-1.5184511E-1,2.276982E-1,3.239553E-2,-4.0469274E-1,-1.0448015E-1,3.5693105E-2,5.0897244E-2,1.5316768E-1,-1.5124635E-1,-2.4540596E-2,-1.1901813E-1,8.556524E-2,-1.0139427E-1,4.17633E-2],"categories":[],"categories_nodes":[],"categories_segments":[],"categories_sizes":[],"default_left":[0,0,0,0,0,0,0,0,0,0,0,0,0,0,0,0,0],"id":29,"left_children":[1,3,5,7,9,-1,11,-1,-1,13,-1,-1,-1,15,-1,-1,-1],"loss_changes":[4.4262525E-1,3.1433988E-1,2.9213613E-1,2.162075E-1,3.4486392E-1,0E0,6.9384634E-2,0E0,0E0,2.5985375E-1,0E0,0E0,0E0,2.7291396E-1,0E0,0E0,0E0],"parents":[2147483647,0,0,1,1,2,2,3,3,4,4,6,6,9,9,13,13],"right_children":[2,4,6,8,10,-1,12,-1,-1,14,-1,-1,-1,16,-1,-1,-1],"split_conditions":[9.678884E-1,4.3380606E-1,4.418526E-1,5.431018E-1,1.0815985E0,3.239553E-2,8.7058306E-1,-1.0448015E-1,3.5693105E-2,1.1202269E0,1.5316768E-1,-1.5124635E-1,-2.4540596E-2,7.682139E-1,8.556524E-2,-1.0139427E-1,4.17633E-2],"split_indices":[305,70,497,227,489,0,270,0,0,476,0,0,0,19,0,0,0],"split_type":[0,0,0,0,0,0,0,0,0,0,0,0,0,0,0,0,0],"sum_hessian":[1.2270522E1,8.700976E0,3.569546E0,2.285465E0,6.415511E0,1.1249088E0,2.444637E0,1.1589434E0,1.1265216E0,4.67399E0,1.7415215E0,1.4397616E0,1.0048755E0,2.9945714E0,1.6794182E0,1.4533646E0,1.5412068E0],"tree_param":{"num_deleted":"0","num_feature":"512","num_nodes":"17","size_leaf_vector":"1"}},{"base_weights":[-1.3575157E-3,1.507571E-1,-1.8554182E-1,-1.9569024E-2,3.848095E-1,-2.9441398E-1,5.1895414E-2,1.7501637E-1,-2.2192162E-1,3.1189496E-2,1.4093634E-1,-8.0933954E-5,-1.3158219E-1,9.916188E-2,-2.5058351E-2,-9.813303E-2,-1.163568E-3],"categories":[],"categories_nodes":[],"categories_segments":[],"categories_sizes":[],"default_left":[0,0,0,0,0,0,0,0,0,0,0,0,0,0,0,0,0],"id":30,"left_children":[1,3,5,7,9,11,-1,13,15,-1,-1,-1,-1,-1,-1,-1,-1],"loss_changes":[3.8366494E-1,3.06712E-1,2.9257554E-1,2.473442E-1,2.7754515E-2,2.1698904E-1,0E0,1.5863535E-1,6.8381906E-2,0E0,0E0,0E0,0E0,0E0,0E0,0E0,0E0],"parents":[2147483647,0,0,1,1,2,2,3,3,4,4,5,5,7,7,8,8],"right_children":[2,4,6,8,10,12,-1,14,16,-1,-1,-1,-1,-1,-1,-1,-1],"split_conditions":[8.7584686E-1,8.442883E-1,1.4916098E0,1.2457459E0,6.8276167E-1,5.8929294E-1,5.1895414E-2,1.0214161E0,9.772038E-1,3.1189496E-2,1.4093634E-1,-8.0933954E-5,-1.3158219E-1,9.916188E-2,-2.5058351E-2,-9.813303E-2,-1.163568E-3],"split_indices":[461,176,399,460,90,273,0,312,218,0,0,0,0,0,0,0,0],"split_type":[0,0,0,0,0,0,0,0,0,0,0,0,0,0,0,0,0],"sum_hessian":[1.1695561E1,6.504826E0,5.190735E0,4.2953653E0,2.209461E0,4.118815E0,1.07192E0,2.258576E0,2.0367894E0,1.0297322E0,1.1797286E0,1.6844746E0,2.4343405E0,1.236384E0,1.0221918E0,1.0365351E0,1.0002544E0],"tree_param":{"num_deleted":"0","num_feature":"512","num_nodes":"17","size_leaf_vector":"1"}},{"base_weights":[4.375776E-3,1.7771816E-1,-1.5542854E-1,2.8592816E-1,-5.5308092E-2,-3.2519868E-1,8.791084E-2,-2.8867647E-2,4.0243345E-1,-4.5636606E-1,1.3746213E-2,-2.6390921E-2,7.638547E-2,1.4892174E-1,1.820838E-2,-1.6100535E-1,-4.1821662E-2],"categories":[],"categories_nodes":[],"categories_segments":[],"categories_sizes":[],"default_left":[0,0,0,0,0,0,0,0,0,0,0,0,0,0,0,0,0],"id":31,"left_children":[1,3,5,7,-1,9,11,-1,13,15,-1,-1,-1,-1,-1,-1,-1],"loss_changes":[3.6734334E-1,3.0148333E-1,3.1424242E-1,2.7382323E-1,0E0,2.2948205E-1,1.287971E-1,0E0,1.0602355E-1,8.114994E-3,0E0,0E0,0E0,0E0,0E0,0E0,0E0],"parents":[2147483647,0,0,1,1,2,2,3,3,5,5,6,6,8,8,9,9],"right_children":[2,4,6,8,-1,10,12,-1,14,16,-1,-1,-1,-1,-1,-1,-1],"split_conditions":[7.420446E-1,1.3353001E0,1.1986835E0,4.324084E-1,-5.5308092E-2,8.9043957E-1,6.083896E-1,-2.8867647E-2,1.2859402E0,7.8321433E-1,1.3746213E-2,-2.6390921E-2,7.638547E-2,1.4892174E-1,1.820838E-2,-1.6100535E-1,-4.1821662E-2],"split_indices":[142,262,433,290,0,327,374,0,168,94,0,0,0,0,0,0,0],"split_type":[0,0,0,0,0,0,0,0,0,0,0,0,0,0,0,0,0],"sum_hessian":[1.1263909E1,5.3493176E0,5.914592E0,4.2804003E0,1.0689173E0,3.2857966E0,2.6287951E0,1.0407294E0,3.239671E0,2.257621E0,1.0281755E0,1.5090351E0,1.11976E0,2.1859767E0,1.0536942E0,1.2481227E0,1.0094984E0],"tree_param":{"num_deleted":"0","num_feature":"512","num_nodes":"17","size_leaf_vector":"1"}},{"base_weights":[-1.414688E-3,1.6839273E-1,-1.56863E-1,-8.525138E-2,3.3890584E-1,-2.7976745E-1,4.5916643E-2,-7.260129E-2,3.4779567E-2,8.146843E-3,1.377406E-1,-4.1598824E-1,3.7803076E-2,-1.5694782E-1,-2.1791304E-2],"categories":[],"categories_nodes":[],"categories_segments":[],"categories_sizes":[],"default_left":[0,0,0,0,0,0,0,0,0,0,0,0,0,0,0],"id":32,"left_children":[1,3,5,7,9,11,-1,-1,-1,-1,-1,13,-1,-1,-1],"loss_changes":[3.3867118E-1,2.9426938E-1,2.9778263E-1,1.3104288E-1,1.3259465E-1,3.36895E-1,0E0,0E0,0E0,0E0,0E0,1.1233556E-1,0E0,0E0,0E0],"parents":[2147483647,0,0,1,1,2,2,3,3,4,4,5,5,11,11],"right_children":[2,4,6,8,10,12,-1,-1,-1,-1,-1,14,-1,-1,-1],"split_conditions":[6.819581E-1,6.7080796E-1,1.4982576E0,8.354884E-1,4.2525703E-1,1.0746105E0,4.5916643E-2,-7.260129E-2,3.4779567E-2,8.146843E-3,1.377406E-1,8.073591E-1,3.7803076E-2,-1.5694782E-1,-2.1791304E-2],"split_indices":[324,88,144,130,155,0,0,0,0,0,0,122,0,0,0],"split_type":[0,0,0,0,0,0,0,0,0,0,0,0,0,0,0],"sum_hessian":[1.0829568E1,5.1359396E0,5.693629E0,2.265685E0,2.8702543E0,4.146527E0,1.5471019E0,1.159416E0,1.1062691E0,1.1400428E0,1.7302115E0,3.085539E0,1.0609877E0,1.9524317E0,1.1331074E0],"tree_param":{"num_deleted":"0","num_feature":"512","num_nodes":"15","size_leaf_vector":"1"}},{"base_weights":[-4.3463614E-4,-1.2799399E-1,1.9128561E-1,-2.9016045E-1,1.6007952E-1,1.143846E-1,-4.7666576E-2,-4.036476E-1,1.5730847E-2,-2.776402E-2,9.723801E-2,3.4304682E-2,-5.622228E-2,-1.4613228E-1,-2.3510406E-2],"categories":[],"categories_nodes":[],"categories_segments":[],"categories_sizes":[],"default_left":[0,0,0,0,0,0,0,0,0,0,0,0,0,0,0],"id":33,"left_children":[1,3,5,7,9,-1,11,13,-1,-1,-1,-1,-1,-1,-1],"loss_changes":[3.033205E-1,3.9427605E-1,2.4318267E-1,2.2020945E-1,1.6784312E-1,0E0,9.125492E-2,6.934565E-2,0E0,0E0,0E0,0E0,0E0,0E0,0E0],"parents":[2147483647,0,0,1,1,2,2,3,3,4,4,6,6,7,7],"right_children":[2,4,6,8,10,-1,12,14,-1,-1,-1,-1,-1,-1,-1],"split_conditions":[1.0293746E0,8.903966E-1,7.9417163E-1,1.1838528E0,7.147156E-1,1.143846E-1,1.3929564E0,8.568169E-1,1.5730847E-2,-2.776402E-2,9.723801E-2,3.4304682E-2,-5.622228E-2,-1.4613228E-1,-2.3510406E-2],"split_indices":[274,270,174,225,122,0,460,254,0,0,0,0,0,0,0],"split_type":[0,0,0,0,0,0,0,0,0,0,0,0,0,0,0],"sum_hessian":[1.0401717E1,6.4455924E0,3.956125E0,4.119397E0,2.326195E0,1.8720077E0,2.0841172E0,2.9605103E0,1.1588871E0,1.0874372E0,1.2387578E0,1.0492853E0,1.0348319E0,1.9600881E0,1.0004221E0],"tree_param":{"num_deleted":"0","num_feature":"512","num_nodes":"15","size_leaf_vector":"1"}},{"base_weights":[3.3601416E-5,1.1462982E-1,-2.12503E-1,-5.6266274E-2,2.1502604E-1,1.4902377E-2,-1.0951831E-1,-2.9857364E-2,3.155239E-1,4.2422614E-1,-3.4539502E-3,3.0401694E-2,1.5096827E-1],"categories":[],"categories_nodes":[],"categories_segments":[],"categories_sizes":[],"default_left":[0,0,0,0,0,0,0,0,0,0,0,0,0],"id":34,"left_children":[1,3,5,-1,7,-1,-1,-1,9,11,-1,-1,-1],"loss_changes":[2.9299814E-1,2.774384E-1,1.8668985E-1,0E0,2.315793E-1,0E0,0E0,0E0,1.8401456E-1,4.614681E-2,0E0,0E0,0E0],"parents":[2147483647,0,0,1,1,2,2,4,4,8,8,9,9],"right_children":[2,4,6,-1,8,-1,-1,-1,10,12,-1,-1,-1],"split_conditions":[9.110748E-1,3.69785E-1,6.378768E-1,-5.6266274E-2,4.2044818E-1,1.4902377E-2,-1.0951831E-1,-2.9857364E-2,1.466595E0,6.307605E-1,-3.4539502E-3,3.0401694E-2,1.5096827E-1],"split_indices":[71,153,103,0,316,0,0,0,419,429,0,0,0],"split_type":[0,0,0,0,0,0,0,0,0,0,0,0,0],"sum_hessian":[1.0029731E1,6.815555E0,3.214176E0,1.4831771E0,5.332378E0,1.4303852E0,1.7837906E0,1.2935017E0,4.038876E0,2.8082688E0,1.2306075E0,1.0007685E0,1.8075001E0],"tree_param":{"num_deleted":"0","num_feature":"512","num_nodes":"13","size_leaf_vector":"1"}},{"base_weights":[5.4019527E-4,-1.710972E-1,1.3798758E-1,-3.3118898E-1,3.865143E-2,-2.9725552E-2,1.05330266E-1,-1.4383966E-1,1.6481382E-3,4.9677067E-2,-6.999629E-2],"categories":[],"categories_nodes":[],"categories_segments":[],"categories_sizes":[],"default_left":[0,0,0,0,0,0,0,0,0,0,0],"id":35,"left_children":[1,3,5,7,-1,9,-1,-1,-1,-1,-1],"loss_changes":[2.7653077E-1,2.9303125E-1,2.4301097E-1,1.8632594E-1,0E0,2.2009858E-1,0E0,0E0,0E0,0E0,0E0],"parents":[2147483647,0,0,1,1,2,2,3,3,5,5],"right_children":[2,4,6,8,-1,10,-1,-1,-1,-1,-1],"split_conditions":[6.616302E-1,8.4488654E-1,9.427713E-1,1.0064676E0,3.865143E-2,9.1961753E-1,1.05330266E-1,-1.4383966E-1,1.6481382E-3,4.9677067E-2,-6.999629E-2],"split_indices":[14,279,73,473,0,169,0,0,0,0,0],"split_type":[0,0,0,0,0,0,0,0,0,0,0],"sum_hessian":[9.721048E0,4.213999E0,5.5070496E0,2.6795669E0,1.534432E0,3.5633376E0,1.943712E0,1.565866E0,1.1137009E0,1.9139206E0,1.649417E0],"tree_param":{"num_deleted":"0","num_feature":"512","num_nodes":"11","size_leaf_vector":"1"}},{"base_weights":[-2.02972E-3,-2.0884578E-1,1.0826199E-1,-1.04842484E-1,1.4436612E-2,2.3220192E-1,-1.515402E-1,-2.6311759E-2,3.379061E-1,-6.7381755E-2,-9.751299E-4,-1.1084793E-3,1.3294336E-1],"categories":[],"categories_nodes":[],"categories_segments":[],"categories_sizes":[],"default_left":[0,0,0,0,0,0,0,0,0,0,0,0,0],"id":36,"left_children":[1,3,5,-1,-1,7,9,-1,11,-1,-1,-1,-1],"loss_changes":[2.597687E-1,1.5983267E-1,2.7473962E-1,0E0,0E0,2.1331003E-1,3.1860135E-2,0E0,1.5581465E-1,0E0,0E0,0E0,0E0],"parents":[2147483647,0,0,1,1,2,2,5,5,6,6,8,8],"right_children":[2,4,6,-1,-1,8,10,-1,12,-1,-1,-1,-1],"split_conditions":[4.336178E-1,9.581742E-1,1.5395974E0,-1.04842484E-1,1.4436612E-2,2.979499E-1,1.1835995E0,-2.6311759E-2,4.1241458E-1,-6.7381755E-2,-9.751299E-4,-1.1084793E-3,1.3294336E-1],"split_indices":[227,80,460,0,0,192,480,0,269,0,0,0,0],"split_type":[0,0,0,0,0,0,0,0,0,0,0,0,0],"sum_hessian":[9.397089E0,2.9575653E0,6.439524E0,1.6788156E0,1.2787497E0,4.431629E0,2.007895E0,1.1429192E0,3.2887099E0,1.0003561E0,1.0075389E0,1.0017962E0,2.2869136E0],"tree_param":{"num_deleted":"0","num_feature":"512","num_nodes":"13","size_leaf_vector":"1"}},{"base_weights":[-6.137779E-3,1.30865E-1,-1.6727097E-1,-3.7335232E-2,2.4895835E-1,3.135508E-2,-2.7340165E-1,-1.3734946E-2,3.51238E-1,-1.1677937E-1,2.4899414E-3,1.3188614E-1,2.2566842E-2],"categories":[],"categories_nodes":[],"categories_segments":[],"categories_sizes":[],"default_left":[0,0,0,0,0,0,0,0,0,0,0,0,0],"id":37,"left_children":[1,3,5,-1,7,-1,9,-1,11,-1,-1,-1,-1],"loss_changes":[2.4529989E-1,2.1281517E-1,1.7538139E-1,0E0,1.5043357E-1,0E0,1.3172185E-1,0E0,5.0456524E-2,0E0,0E0,0E0,0E0],"parents":[2147483647,0,0,1,1,2,2,4,4,6,6,8,8],"right_children":[2,4,6,-1,8,-1,10,-1,12,-1,-1,-1,-1],"split_conditions":[8.7584686E-1,4.630524E-1,4.020624E-1,-3.7335232E-2,4.8718673E-1,3.135508E-2,1.0106833E0,-1.3734946E-2,8.866836E-1,-1.1677937E-1,2.4899414E-3,1.3188614E-1,2.2566842E-2],"split_indices":[461,163,253,0,407,0,155,0,64,0,0,0,0],"split_type":[0,0,0,0,0,0,0,0,0,0,0,0,0],"sum_hessian":[9.120179E0,5.0306973E0,4.089482E0,1.5739694E0,3.4567277E0,1.1527171E0,2.9367647E0,1.0328151E0,2.4239128E0,1.8103428E0,1.126422E0,1.387033E0,1.0368798E0],"tree_param":{"num_deleted":"0","num_feature":"512","num_nodes":"13","size_leaf_vector":"1"}},{"base_weights":[-2.1810997E-3,1.5710796E-1,-1.3662171E-1,1.0984385E-1,-4.1618083E-2,4.414196E-2,-2.3523115E-1,4.705443E-2,-6.1843146E-2,3.7249888E-4,-1.0727636E-1],"categories":[],"categories_nodes":[],"categories_segments":[],"categories_sizes":[],"default_left":[0,0,0,0,0,0,0,0,0,0,0],"id":38,"left_children":[1,3,5,-1,7,-1,9,-1,-1,-1,-1],"loss_changes":[2.3292854E-1,2.2231182E-1,1.9941935E-1,0E0,1.4509468E-1,0E0,1.3804665E-1,0E0,0E0,0E0,0E0],"parents":[2147483647,0,0,1,1,2,2,4,4,6,6],"right_children":[2,4,6,-1,8,-1,10,-1,-1,-1,-1],"split_conditions":[7.15489E-1,5.039025E-1,5.102636E-1,1.0984385E-1,7.234987E-1,4.414196E-2,4.3343845E-1,4.705443E-2,-6.1843146E-2,3.7249888E-4,-1.0727636E-1],"split_indices":[91,498,119,0,71,0,50,0,0,0,0],"split_type":[0,0,0,0,0,0,0,0,0,0,0],"sum_hessian":[8.874619E0,3.9847586E0,4.8898597E0,1.5314124E0,2.4533463E0,1.1341232E0,3.7557366E0,1.1331278E0,1.3202184E0,1.6181908E0,2.1375458E0],"tree_param":{"num_deleted":"0","num_feature":"512","num_nodes":"11","size_leaf_vector":"1"}},{"base_weights":[1.6879389E-3,-2.0856313E-1,9.5650524E-2,-1.182184E-1,2.3194188E-2,3.0414042E-1,-4.1799527E-2,2.4371674E-2,1.1221713E-1,-7.256175E-2,1.0927188E-1,-2.0634204E-2,8.5420534E-2],"categories":[],"categories_nodes":[],"categories_segments":[],"categories_sizes":[],"default_left":[0,0,0,0,0,0,0,0,0,0,0,0,0],"id":39,"left_children":[1,3,5,-1,-1,7,9,-1,-1,-1,11,-1,-1],"loss_changes":[2.1027142E-1,2.0493442E-1,2.2316286E-1,0E0,0E0,1.69684E-2,1.8677774E-1,0E0,0E0,0E0,1.3553818E-1,0E0,0E0],"parents":[2147483647,0,0,1,1,2,2,5,5,6,6,10,10],"right_children":[2,4,6,-1,-1,8,10,-1,-1,-1,12,-1,-1],"split_conditions":[4.3380606E-1,5.431018E-1,4.739914E-1,-1.182184E-1,2.3194188E-2,6.668922E-1,5.5168E-1,2.4371674E-2,1.1221713E-1,-7.256175E-2,5.79162E-1,-2.0634204E-2,8.5420534E-2],"split_indices":[70,227,174,0,0,122,155,0,0,0,233,0,0],"split_type":[0,0,0,0,0,0,0,0,0,0,0,0,0],"sum_hessian":[8.633773E0,2.2900057E0,6.3437667E0,1.1593224E0,1.1306833E0,2.0386796E0,4.305087E0,1.0029885E0,1.0356911E0,1.5935738E0,2.7115135E0,1.6476024E0,1.063911E0],"tree_param":{"num_deleted":"0","num_feature":"512","num_nodes":"13","size_leaf_vector":"1"}},{"base_weights":[4.7686086E-3,1.0974367E-1,-1.8757884E-1,-8.734355E-2,2.529333E-1,-9.769802E-2,1.800857E-2,2.5251206E-2,-6.309925E-2,1.0327302E-1,2.150862E-4],"categories":[],"categories_nodes":[],"categories_segments":[],"categories_sizes":[],"default_left":[0,0,0,0,0,0,0,0,0,0,0],"id":40,"left_children":[1,3,5,7,9,-1,-1,-1,-1,-1,-1],"loss_changes":[2.0996206E-1,2.111273E-1,1.4538519E-1,9.284151E-2,9.501386E-2,0E0,0E0,0E0,0E0,0E0,0E0],"parents":[2147483647,0,0,1,1,2,2,3,3,4,4],"right_children":[2,4,6,8,10,-1,-1,-1,-1,-1,-1],"split_conditions":[9.557523E-1,5.717115E-1,9.0137655E-1,6.067981E-1,9.641276E-1,-9.769802E-2,1.800857E-2,2.5251206E-2,-6.309925E-2,1.0327302E-1,2.150862E-4],"split_indices":[273,385,104,370,305,0,0,0,0,0,0],"split_type":[0,0,0,0,0,0,0,0,0,0,0],"sum_hessian":[8.378934E0,5.698426E0,2.6805077E0,2.5620358E0,3.13639E0,1.5184813E0,1.1620264E0,1.2017405E0,1.3602954E0,2.034841E0,1.1015489E0],"tree_param":{"num_deleted":"0","num_feature":"512","num_nodes":"11","size_leaf_vector":"1"}},{"base_weights":[1.9674497E-3,-7.984116E-2,6.7266725E-2,1.0092932E-1,-2.4741226E-1,-3.3429038E-2,8.782202E-2,-1.1632246E-1,1.6235692E-2],"categories":[],"categories_nodes":[],"categories_segments":[],"categories_sizes":[],"default_left":[0,0,0,0,0,0,0,0,0],"id":41,"left_children":[1,3,-1,5,7,-1,-1,-1,-1],"loss_changes":[1.8489097E-1,2.5066203E-1,0E0,2.0754169E-1,1.9684675E-1,0E0,0E0,0E0,0E0],"parents":[2147483647,0,0,1,1,3,3,4,4],"right_children":[2,4,-1,6,8,-1,-1,-1,-1],"split_conditions":[1.5262333E0,7.3672867E-1,6.7266725E-2,7.215626E-1,8.958312E-1,-3.3429038E-2,8.782202E-2,-1.1632246E-1,1.6235692E-2],"split_indices":[165,317,0,320,447,0,0,0,0],"split_type":[0,0,0,0,0,0,0,0,0],"sum_hessian":[8.184106E0,6.4505324E0,1.7335734E0,3.294366E0,3.1561666E0,1.7623154E0,1.5320505E0,1.958701E0,1.1974655E0],"tree_param":{"num_deleted":"0","num_feature":"512","num_nodes":"9","size_leaf_vector":"1"}},{"base_weights":[3.4823674E-3,1.4658692E-1,-1.21496364E-1,2.7402443E-1,-2.7492018E-2,-8.483134E-2,3.5200484E-2,1.0599587E-1,1.5648605E-2,5.0131522E-2,-4.557027E-2],"categories":[],"categories_nodes":[],"categories_segments":[],"categories_sizes":[],"default_left":[0,0,0,0,0,0,0,0,0,0,0],"id":42,"left_children":[1,3,5,7,-1,-1,9,-1,-1,-1,-1],"loss_changes":[1.782394E-1,1.6582534E-1,1.447775E-1,3.91026E-2,0E0,0E0,1.14112124E-1,0E0,0E0,0E0,0E0],"parents":[2147483647,0,0,1,1,2,2,3,3,6,6],"right_children":[2,4,6,8,-1,-1,10,-1,-1,-1,-1],"split_conditions":[7.420446E-1,8.917126E-1,8.3307195E-1,6.752362E-1,-2.7492018E-2,-8.483134E-2,1.408897E0,1.0599587E-1,1.5648605E-2,5.0131522E-2,-4.557027E-2],"split_indices":[142,472,469,305,0,0,460,0,0,0,0],"split_type":[0,0,0,0,0,0,0,0,0,0,0],"sum_hessian":[7.970052E0,3.6349852E0,4.335067E0,2.2702618E0,1.3647233E0,1.7398312E0,2.5952356E0,1.235993E0,1.0342689E0,1.5848244E0,1.010411E0],"tree_param":{"num_deleted":"0","num_feature":"512","num_nodes":"11","size_leaf_vector":"1"}},{"base_weights":[4.2603733E-3,-1.13800704E-1,1.7146681E-1,-2.417823E-1,3.7603404E-2,8.497436E-2,-1.7973484E-2,-1.01886675E-1,8.013988E-3],"categories":[],"categories_nodes":[],"categories_segments":[],"categories_sizes":[],"default_left":[0,0,0,0,0,0,0,0,0],"id":43,"left_children":[1,3,5,7,-1,-1,-1,-1,-1],"loss_changes":[1.9327307E-1,2.0660931E-1,1.2150594E-1,1.1661258E-1,0E0,0E0,0E0,0E0,0E0],"parents":[2147483647,0,0,1,1,2,2,3,3],"right_children":[2,4,6,8,-1,-1,-1,-1,-1],"split_conditions":[1.0205306E0,8.903966E-1,1.6053667E0,1.1838528E0,3.7603404E-2,8.497436E-2,-1.7973484E-2,-1.01886675E-1,8.013988E-3],"split_indices":[274,270,488,225,0,0,0,0,0],"split_type":[0,0,0,0,0,0,0,0,0],"sum_hessian":[7.8021784E0,4.760374E0,3.0418038E0,3.0937107E0,1.6666635E0,1.8998115E0,1.1419923E0,2.0732932E0,1.0204175E0],"tree_param":{"num_deleted":"0","num_feature":"512","num_nodes":"9","size_leaf_vector":"1"}},{"base_weights":[4.046654E-3,-1.06581345E-1,1.7351805E-1,3.1030158E-2,-2.1840715E-1,1.0215751E-1,-2.0073518E-2,-9.817736E-2,7.4166027E-3],"categories":[],"categories_nodes":[],"categories_segments":[],"categories_sizes":[],"default_left":[0,0,0,0,0,0,0,0,0],"id":44,"left_children":[1,3,5,-1,7,-1,-1,-1,-1],"loss_changes":[1.8044843E-1,1.5988588E-1,1.7505994E-1,0E0,1.1755361E-1,0E0,0E0,0E0,0E0],"parents":[2147483647,0,0,1,1,2,2,4,4],"right_children":[2,4,6,-1,8,-1,-1,-1,-1],"split_conditions":[1.055762E0,6.226552E-1,1.0546726E0,3.1030158E-2,1.2169718E0,1.0215751E-1,-2.0073518E-2,-9.817736E-2,7.4166027E-3],"split_indices":[70,487,267,0,189,0,0,0,0],"split_type":[0,0,0,0,0,0,0,0,0],"sum_hessian":[7.638373E0,4.8460503E0,2.7923226E0,1.7098672E0,3.1361828E0,1.402088E0,1.3902345E0,1.9272945E0,1.2088884E0],"tree_param":{"num_deleted":"0","num_feature":"512","num_nodes":"9","size_leaf_vector":"1"}},{"base_weights":[5.51222E-3,-1.3799423E-1,1.3356717E-1,4.66872E-2,-9.7851194E-2,-2.5008027E-2,2.4115442E-1,5.7574134E-2,-3.6999196E-2,7.2152964E-3,9.9609986E-2],"categories":[],"categories_nodes":[],"categories_segments":[],"categories_sizes":[],"default_left":[0,0,0,0,0,0,0,0,0,0,0],"id":45,"left_children":[1,3,5,7,-1,-1,9,-1,-1,-1,-1],"loss_changes":[1.7415829E-1,1.711923E-1,1.3647602E-1,1.0119243E-1,0E0,0E0,6.28465E-2,0E0,0E0,0E0,0E0],"parents":[2147483647,0,0,1,1,2,2,3,3,6,6],"right_children":[2,4,6,8,-1,-1,10,-1,-1,-1,-1],"split_conditions":[7.4691546E-1,8.9778644E-1,2.7713725E-1,7.7676517E-1,-9.7851194E-2,-2.5008027E-2,7.5080436E-1,5.7574134E-2,-3.6999196E-2,7.2152964E-3,9.9609986E-2],"split_indices":[306,324,382,423,0,0,54,0,0,0,0],"split_type":[0,0,0,0,0,0,0,0,0,0,0],"sum_hessian":[7.4741383E0,3.4878345E0,3.986304E0,2.1397362E0,1.3480983E0,1.3962476E0,2.5900564E0,1.084547E0,1.055189E0,1.1374395E0,1.4526168E0],"tree_param":{"num_deleted":"0","num_feature":"512","num_nodes":"11","size_leaf_vector":"1"}},{"base_weights":[4.56965E-3,1.4332259E-1,-1.23313226E-1,-3.73439E-2,2.6103887E-1,-8.735684E-2,2.5538974E-2,1.1624339E-2,1.1440583E-1],"categories":[],"categories_nodes":[],"categories_segments":[],"categories_sizes":[],"default_left":[0,0,0,0,0,0,0,0,0],"id":46,"left_children":[1,3,5,-1,7,-1,-1,-1,-1],"loss_changes":[1.6501507E-1,1.7262308E-1,1.9480492E-1,0E0,7.644077E-2,0E0,0E0,0E0,0E0],"parents":[2147483647,0,0,1,1,2,2,4,4],"right_children":[2,4,6,-1,8,-1,-1,-1,-1],"split_conditions":[7.344446E-1,3.449062E-1,8.958312E-1,-3.73439E-2,6.9909024E-1,-8.735684E-2,2.5538974E-2,1.1624339E-2,1.1440583E-1],"split_indices":[317,29,447,0,320,0,0,0,0],"split_type":[0,0,0,0,0,0,0,0,0],"sum_hessian":[7.3036785E0,3.4450574E0,3.858621E0,1.0343887E0,2.4106688E0,1.9174051E0,1.9412156E0,1.310835E0,1.0998337E0],"tree_param":{"num_deleted":"0","num_feature":"512","num_nodes":"9","size_leaf_vector":"1"}},{"base_weights":[6.786611E-3,1.310952E-1,-1.4119287E-1,-3.142076E-2,2.1834205E-1,-7.690701E-2,9.577567E-3,-3.7900237E-3,9.140201E-2],"categories":[],"categories_nodes":[],"categories_segments":[],"categories_sizes":[],"default_left":[0,0,0,0,0,0,0,0,0],"id":47,"left_children":[1,3,5,-1,7,-1,-1,-1,-1],"loss_changes":[1.6828972E-1,1.2458644E-1,9.189398E-2,0E0,8.227083E-2,0E0,0E0,0E0,0E0],"parents":[2147483647,0,0,1,1,2,2,4,4],"right_children":[2,4,6,-1,8,-1,-1,-1,-1],"split_conditions":[8.7584686E-1,4.3169034E-1,7.4691546E-1,-3.142076E-2,4.3635014E-1,-7.690701E-2,9.577567E-3,-3.7900237E-3,9.140201E-2],"split_indices":[461,51,306,0,163,0,0,0,0],"split_type":[0,0,0,0,0,0,0,0,0],"sum_hessian":[7.142377E0,3.9436524E0,3.1987245E0,1.0108465E0,2.9328058E0,1.6321471E0,1.5665776E0,1.0302043E0,1.9026015E0],"tree_param":{"num_deleted":"0","num_feature":"512","num_nodes":"9","size_leaf_vector":"1"}},{"base_weights":[3.6031075E-3,-1.1508552E-1,1.470424E-1,4.0043455E-2,-2.2730617E-1,-2.6530169E-2,8.035471E-2,-1.00183375E-1,9.291233E-3],"categories":[],"categories_nodes":[],"categories_segments":[],"categories_sizes":[],"default_left":[0,0,0,0,0,0,0,0,0],"id":48,"left_children":[1,3,5,-1,7,-1,-1,-1,-1],"loss_changes":[1.5342368E-1,1.6837175E-1,1.3945097E-1,0E0,1.14430204E-1,0E0,0E0,0E0,0E0],"parents":[2147483647,0,0,1,1,2,2,4,4],"right_children":[2,4,6,-1,8,-1,-1,-1,-1],"split_conditions":[9.928558E-1,4.031811E-1,6.013754E-1,4.0043455E-2,1.0712167E0,-2.6530169E-2,8.035471E-2,-1.00183375E-1,9.291233E-3],"split_indices":[338,116,316,0,73,0,0,0,0],"split_type":[0,0,0,0,0,0,0,0,0],"sum_hessian":[7.0178766E0,3.948427E0,3.0694494E0,1.1692235E0,2.7792034E0,1.1316361E0,1.9378133E0,1.7596866E0,1.0195168E0],"tree_param":{"num_deleted":"0","num_feature":"512","num_nodes":"9","size_leaf_vector":"1"}},{"base_weights":[2.7252003E-3,-1.0641951E-1,1.5858817E-1,-2.52868E-1,4.3653432E-2,1.0131912E-1,-2.8368974E-2,-1.039572E-1,-8.1359554E-4],"categories":[],"categories_nodes":[],"categories_segments":[],"categories_sizes":[],"default_left":[0,0,0,0,0,0,0,0,0],"id":49,"left_children":[1,3,5,7,-1,-1,-1,-1,-1],"loss_changes":[1.506858E-1,2.2955713E-1,1.9706175E-1,8.502573E-2,0E0,0E0,0E0,0E0,0E0],"parents":[2147483647,0,0,1,1,2,2,3,3],"right_children":[2,4,6,8,-1,-1,-1,-1,-1],"split_conditions":[8.4488654E-1,1.0064676E0,1.3278055E0,1.0647066E0,4.3653432E-2,1.0131912E-1,-2.8368974E-2,